<?xml version="1.0"?>
<opencv_storage>
<my_svm type_id="opencv-ml-svm">
  <svm_type>C_SVC</svm_type>
  <kernel><type>LINEAR</type></kernel>
  <C>1.</C>
  <term_criteria><epsilon>2.2204460492503131e-16</epsilon>
    <iterations>10000</iterations></term_criteria>
  <var_all>136</var_all>
  <var_count>136</var_count>
  <class_count>11</class_count>
  <class_labels type_id="opencv-matrix">
    <rows>1</rows>
    <cols>11</cols>
    <dt>i</dt>
    <data>
      0 1 2 3 4 5 6 10 11 12 14</data></class_labels>
  <sv_total>227</sv_total>
  <support_vectors>
    <_>
      -6.13062439e+01 -2.16959133e+01 -6.14473114e+01 -8.35396767e+00
      -6.06870384e+01 5.73715162e+00 -5.92972908e+01 2.06028786e+01
      -5.36566811e+01 3.34064522e+01 -4.24665413e+01 4.31887169e+01
      -3.11308746e+01 5.15711708e+01 -1.81497955e+01 5.67445374e+01
      -2.07393265e+00 5.94067421e+01 1.39736910e+01 5.82150383e+01
      2.92850342e+01 5.02017212e+01 4.40664482e+01 4.20429878e+01
      5.37569580e+01 3.28047218e+01 6.11753349e+01 1.71155548e+01
      6.52653275e+01 1.46114755e+00 6.69299850e+01 -1.34137402e+01
      6.63220673e+01 -2.58521976e+01 5.21078453e+01 -4.42390289e+01
      4.56384392e+01 -4.80778580e+01 3.63482628e+01 -4.94311600e+01
      2.83663616e+01 -4.86849556e+01 2.09650784e+01 -4.46613846e+01
      -1.34969282e+01 -4.19945602e+01 -2.21578693e+01 -4.54635239e+01
      -3.22832184e+01 -4.59417305e+01 -4.19779282e+01 -4.37841530e+01
      -4.99133148e+01 -3.94235535e+01 -4.55976181e+01 -2.59411907e+01
      -3.55746651e+01 -3.16003742e+01 -2.62143002e+01 -3.24754524e+01
      -1.87662983e+01 -2.70612068e+01 -2.58447533e+01 -2.55660076e+01
      -3.58324661e+01 -2.54657421e+01 1.80290680e+01 -2.85578022e+01
      2.70973244e+01 -3.55139580e+01 3.57085190e+01 -3.54876823e+01
      4.49376335e+01 -2.88515854e+01 3.66795998e+01 -2.80795670e+01
      2.84708748e+01 -2.67572479e+01 -1.12911975e+00 -3.14867897e+01
      -1.68200707e+00 -2.25499725e+01 -2.41479516e+00 -1.55374956e+01
      -2.56291175e+00 -5.25015879e+00 -2.21098919e+01 -3.42277169e+00
      -9.96419621e+00 -1.22658563e+00 -2.42016649e+00 2.23539233e+00
      4.95318079e+00 -2.06409693e+00 1.68178501e+01 -2.89690518e+00
      -2.43440762e+01 2.31672134e+01 -1.81443081e+01 1.99737148e+01
      -9.67141151e+00 1.75811348e+01 -4.94667232e-01 1.74002666e+01
      8.70716858e+00 1.66857071e+01 1.70111675e+01 1.82618999e+01
      2.25655422e+01 2.29468803e+01 1.57256622e+01 2.99732342e+01
      7.34601355e+00 3.24235115e+01 -2.51304913e+00 3.39001274e+01
      -1.38604527e+01 3.13507862e+01 -1.95013123e+01 2.74366360e+01
      -1.71090374e+01 2.33242836e+01 -8.45538616e+00 2.08483772e+01
      1.30395800e-01 2.06027756e+01 8.99208355e+00 2.03292465e+01
      1.72055111e+01 2.20595970e+01 7.98297024e+00 2.73654232e+01
      5.76984465e-01 2.83363152e+01 -8.88643169e+00 2.81090431e+01</_>
    <_>
      -7.50316696e+01 -2.67347221e+01 -7.23430328e+01 -1.17412634e+01
      -7.03408737e+01 4.10991859e+00 -6.63516541e+01 1.82926903e+01
      -5.84876823e+01 3.03533821e+01 -4.73031235e+01 3.96319542e+01
      -3.11468029e+01 4.47301025e+01 -1.62376022e+01 5.00253716e+01
      -1.72020450e-01 5.26557579e+01 1.94269428e+01 5.00627327e+01
      3.19493637e+01 4.84732246e+01 4.59588280e+01 4.19179497e+01
      5.56576080e+01 3.29305077e+01 6.46153946e+01 1.83340588e+01
      6.71922989e+01 2.88203883e+00 6.78620682e+01 -1.18186636e+01
      6.92561035e+01 -2.43022346e+01 4.99942245e+01 -4.31937561e+01
      4.13324814e+01 -4.61028061e+01 3.43450241e+01 -4.70177612e+01
      2.59711990e+01 -4.62119331e+01 1.79451637e+01 -4.23042412e+01
      -1.48887100e+01 -4.30124130e+01 -2.75159397e+01 -4.62671356e+01
      -3.58104286e+01 -4.63719521e+01 -4.47649269e+01 -4.59226151e+01
      -5.27915268e+01 -4.20084648e+01 -4.54703560e+01 -2.72293854e+01
      -3.47253761e+01 -3.06007175e+01 -2.42737083e+01 -3.06071987e+01
      -1.70983524e+01 -2.47561646e+01 -2.52156887e+01 -2.33097706e+01
      -3.55609512e+01 -2.45239449e+01 1.77290287e+01 -2.57158585e+01
      2.65020542e+01 -3.11007137e+01 3.65443459e+01 -2.99194603e+01
      4.44596672e+01 -2.55397110e+01 3.66729012e+01 -2.43768482e+01
      2.63913364e+01 -2.28132572e+01 1.78041112e+00 -2.89412270e+01
      1.66880190e+00 -2.04195900e+01 1.56450987e+00 -1.19818907e+01
      1.45703518e+00 -3.13451242e+00 -1.83358078e+01 4.02963161e-02
      -7.09935760e+00 1.63150072e+00 1.25884140e+00 4.51408720e+00
      1.07561636e+01 1.34636295e+00 1.88799477e+01 -9.94705409e-02
      -1.97968903e+01 2.38932056e+01 -1.37638168e+01 2.16468983e+01
      -7.83124924e+00 2.06282806e+01 -1.67507589e+00 2.05532093e+01
      5.70229864e+00 2.05780792e+01 1.30197458e+01 2.12159481e+01
      1.80794659e+01 2.31928024e+01 1.20399475e+01 2.54385471e+01
      6.47087479e+00 2.58706303e+01 9.47696090e-01 2.57015362e+01
      -3.07072854e+00 2.59629536e+01 -8.58687878e+00 2.57879601e+01
      -1.33366070e+01 2.38381519e+01 -8.26766205e+00 2.21260052e+01
      1.24045050e+00 2.23431473e+01 8.94783592e+00 2.20909309e+01
      1.31698484e+01 2.30771904e+01 7.56728649e+00 2.38187237e+01
      1.12092173e+00 2.44606857e+01 -8.18352509e+00 2.39229107e+01</_>
    <_>
      -6.97248688e+01 -2.94019070e+01 -6.94943619e+01 -1.35644903e+01
      -6.59353027e+01 3.30509973e+00 -6.28222504e+01 1.81759682e+01
      -5.44045486e+01 2.91067829e+01 -3.74390411e+01 3.88296242e+01
      -2.78215790e+01 4.36137543e+01 -1.60185127e+01 4.96523895e+01
      -6.87631547e-01 5.33473167e+01 1.59193478e+01 4.94860992e+01
      3.06796741e+01 4.32630768e+01 4.20797615e+01 3.65656319e+01
      5.50613823e+01 2.68506336e+01 6.21239777e+01 1.19945993e+01
      6.29629097e+01 2.15299487e+00 6.56857452e+01 -1.09725008e+01
      6.61268463e+01 -2.36606045e+01 6.12983856e+01 -3.68346329e+01
      5.23017235e+01 -4.30905762e+01 4.09022484e+01 -4.49394226e+01
      2.88615208e+01 -4.41686707e+01 1.63053513e+01 -4.01034164e+01
      -1.63210487e+01 -4.06215935e+01 -2.88962688e+01 -4.50851059e+01
      -4.09395447e+01 -4.62393646e+01 -5.23345299e+01 -4.47529869e+01
      -6.13021240e+01 -3.87827950e+01 -5.02117882e+01 -2.71592312e+01
      -4.02011414e+01 -3.11340904e+01 -2.82943935e+01 -3.09910641e+01
      -1.84438648e+01 -2.62384396e+01 -2.84601402e+01 -2.51848030e+01
      -3.93859863e+01 -2.53243313e+01 1.84834766e+01 -2.56512318e+01
      2.83153934e+01 -3.00913525e+01 4.02242851e+01 -2.98549328e+01
      5.02538872e+01 -2.55621796e+01 3.94332085e+01 -2.40730095e+01
      2.85074558e+01 -2.42796879e+01 1.01498210e+00 -3.13141479e+01
      7.37532854e-01 -2.14406414e+01 2.09594548e-01 -1.21483946e+01
      3.55103821e-01 -4.79498720e+00 -1.79719238e+01 -4.68209982e-01
      -7.06787825e+00 1.56512392e+00 1.09543711e-01 4.51703739e+00
      8.20062256e+00 1.30229473e+00 1.84526291e+01 -9.23406258e-02
      -1.93480701e+01 2.37533741e+01 -1.15838337e+01 2.13668575e+01
      -7.81297588e+00 1.96039944e+01 -4.55852151e-01 1.94586964e+01
      5.73898268e+00 1.98106537e+01 1.09938269e+01 2.18028088e+01
      1.84699097e+01 2.44881783e+01 1.21593962e+01 2.61067600e+01
      7.52839756e+00 2.81042652e+01 2.17764354e+00 2.78002625e+01
      -3.18917751e+00 2.77788620e+01 -1.01996927e+01 2.68135319e+01
      -1.42957573e+01 2.43202000e+01 -6.87833977e+00 2.30480194e+01
      -1.66263446e-01 2.42761593e+01 6.07652760e+00 2.37840481e+01
      1.14272833e+01 2.40880508e+01 5.93244743e+00 2.63199921e+01
      2.02026516e-02 2.59840870e+01 -7.02241898e+00 2.55839634e+01</_>
    <_>
      -7.01410065e+01 -2.61957855e+01 -6.55761719e+01 -1.00099993e+01
      -6.28334198e+01 1.81229317e+00 -5.82227249e+01 1.20005550e+01
      -5.16179924e+01 2.40881786e+01 -4.24621315e+01 3.49347267e+01
      -2.85964909e+01 4.39749184e+01 -1.70549393e+01 5.07464027e+01
      -2.18523169e+00 5.52645340e+01 1.10260324e+01 5.29692726e+01
      2.42124043e+01 4.57358780e+01 3.93920021e+01 3.51032295e+01
      4.89271927e+01 2.44483204e+01 5.53926849e+01 1.21769028e+01
      5.93228111e+01 8.00297379e-01 6.37780380e+01 -1.30168495e+01
      6.51169052e+01 -2.77515736e+01 5.97911644e+01 -4.26136742e+01
      5.10742188e+01 -4.88565521e+01 4.01421547e+01 -5.02591858e+01
      2.86584530e+01 -4.88240013e+01 1.67377930e+01 -4.38338890e+01
      -1.44394722e+01 -4.27385826e+01 -2.65404854e+01 -4.68870468e+01
      -3.80715179e+01 -4.75094147e+01 -4.89319115e+01 -4.53379478e+01
      -5.73772888e+01 -3.84973297e+01 -4.77219734e+01 -2.89328308e+01
      -3.68578835e+01 -3.31510620e+01 -2.59462967e+01 -3.27695885e+01
      -1.84955673e+01 -2.80375347e+01 -2.65325184e+01 -2.39925880e+01
      -3.91326714e+01 -2.55361977e+01 1.89032593e+01 -2.80152683e+01
      2.75046539e+01 -3.52001801e+01 3.67050591e+01 -3.56424370e+01
      4.52550392e+01 -3.15463963e+01 3.89056587e+01 -2.63245754e+01
      2.93521118e+01 -2.59059105e+01 1.37706900e+00 -3.20383606e+01
      1.58039260e+00 -2.22479248e+01 1.77489579e+00 -1.25467663e+01
      1.82691646e+00 -4.80607176e+00 -1.68864155e+01 6.46705031e-01
      -8.21949291e+00 2.99176049e+00 1.52307296e+00 5.05394602e+00
      8.78348255e+00 2.01388502e+00 1.73793087e+01 1.12381697e-01
      -1.69113045e+01 2.74630070e+01 -1.10325127e+01 2.39759541e+01
      -4.63515806e+00 2.33464870e+01 1.05641413e+00 2.26624794e+01
      5.99404860e+00 2.26449413e+01 1.20151711e+01 2.23376713e+01
      1.57602015e+01 2.43539791e+01 1.25507984e+01 3.01402225e+01
      8.38366985e+00 3.44436455e+01 1.49949181e+00 3.71614952e+01
      -6.23280144e+00 3.66450539e+01 -1.12660866e+01 3.27839012e+01
      -1.33946161e+01 2.76978893e+01 -6.20447493e+00 2.57098942e+01
      5.15568256e-01 2.54493046e+01 7.94140673e+00 2.52432308e+01
      1.25730648e+01 2.44958305e+01 7.02383709e+00 2.83596191e+01
      1.28607571e+00 2.97351704e+01 -7.52187395e+00 2.95016060e+01</_>
    <_>
      -6.51637955e+01 -2.80824471e+01 -6.36354980e+01 -1.36596661e+01
      -6.30420799e+01 -1.60996056e+00 -6.08327446e+01 1.21678114e+01
      -5.72583961e+01 2.53234997e+01 -4.63122139e+01 3.77204208e+01
      -3.56171951e+01 4.77756691e+01 -1.98223038e+01 5.49923859e+01
      4.55939978e-01 5.83438988e+01 1.93309727e+01 5.36256638e+01
      3.59337578e+01 4.68361092e+01 4.65552902e+01 3.91696434e+01
      5.44775848e+01 3.20805054e+01 6.25117455e+01 2.16558647e+01
      6.60107117e+01 7.06353378e+00 6.84934692e+01 -7.22471905e+00
      6.87014084e+01 -2.32546749e+01 5.09956970e+01 -4.35712929e+01
      4.01969643e+01 -5.02822952e+01 3.08267155e+01 -4.99286957e+01
      2.20788155e+01 -4.82185326e+01 1.62696972e+01 -4.43977890e+01
      -1.94946003e+01 -4.42615585e+01 -3.00843124e+01 -4.76262856e+01
      -3.73439941e+01 -5.02114754e+01 -4.47466393e+01 -4.87858925e+01
      -5.16164322e+01 -4.33353157e+01 -4.78246231e+01 -2.68330688e+01
      -3.71777306e+01 -3.32390594e+01 -2.68924751e+01 -3.31477127e+01
      -1.81426945e+01 -2.48315773e+01 -2.66060104e+01 -2.17761612e+01
      -3.72320175e+01 -2.38063965e+01 1.66280518e+01 -2.53392792e+01
      2.59264221e+01 -3.33798218e+01 3.55588760e+01 -3.17210560e+01
      4.70778923e+01 -2.63215923e+01 3.49497490e+01 -2.33890896e+01
      2.55681610e+01 -2.26977234e+01 -8.45175147e-01 -3.04058399e+01
      -5.19075692e-01 -2.14761009e+01 -2.07049072e-01 -1.26313801e+01
      1.24330975e-01 -3.35485744e+00 -1.70145130e+01 1.26943767e+00
      -7.98203373e+00 9.04525042e-01 -6.91882074e-02 4.17947292e+00
      6.03268290e+00 1.71270442e+00 1.54590063e+01 -3.12867939e-01
      -1.32295427e+01 2.78061657e+01 -1.03623724e+01 2.22213459e+01
      -6.54352331e+00 1.80041542e+01 -5.50644398e-01 1.85348434e+01
      5.50647974e+00 1.74022827e+01 1.10802517e+01 2.05987816e+01
      1.66429691e+01 2.41246090e+01 1.31729317e+01 2.80238037e+01
      6.77544785e+00 2.94746475e+01 1.73713577e+00 2.99735298e+01
      -3.62205243e+00 3.04616375e+01 -8.93390179e+00 2.92859421e+01
      -8.47293663e+00 2.56239777e+01 -4.04305267e+00 2.31011353e+01
      1.96087146e+00 2.33024979e+01 7.32851171e+00 2.28146706e+01
      1.22802048e+01 2.46461506e+01 7.87241268e+00 2.65103226e+01
      8.63623261e-01 2.62752609e+01 -4.14387560e+00 2.61073151e+01</_>
    <_>
      -6.61138763e+01 -2.33981152e+01 -6.37791824e+01 -8.55528259e+00
      -6.09976387e+01 2.60936379e+00 -5.79577675e+01 1.41274776e+01
      -5.15929527e+01 2.89275894e+01 -4.42732468e+01 3.94267960e+01
      -3.43297195e+01 4.82653923e+01 -2.01024246e+01 5.54243279e+01
      -1.27750742e+00 6.09015694e+01 1.25597668e+01 6.01509018e+01
      2.83362713e+01 5.27968788e+01 4.01461754e+01 4.38251343e+01
      5.03104095e+01 3.45254555e+01 5.77975998e+01 1.99739208e+01
      6.32898254e+01 3.45316958e+00 6.58490219e+01 -9.42278004e+00
      6.73746414e+01 -2.75612907e+01 5.20831070e+01 -4.72422714e+01
      4.44651566e+01 -5.28006248e+01 3.52298050e+01 -5.30709572e+01
      2.46856213e+01 -5.26720390e+01 1.74580650e+01 -4.89993324e+01
      -1.48499146e+01 -4.87893028e+01 -2.67455368e+01 -5.29984131e+01
      -3.76114807e+01 -5.12759590e+01 -4.84646111e+01 -4.75796852e+01
      -5.59989395e+01 -4.02792740e+01 -4.35163078e+01 -2.45361042e+01
      -3.66237068e+01 -3.01888065e+01 -2.38175869e+01 -2.94791870e+01
      -1.83754616e+01 -2.57567043e+01 -2.56997528e+01 -2.04480839e+01
      -3.51619530e+01 -2.00396900e+01 1.80138149e+01 -2.70339184e+01
      2.64086113e+01 -3.41004105e+01 3.69241600e+01 -3.38218956e+01
      4.50173950e+01 -2.75646038e+01 3.69947586e+01 -2.29617233e+01
      2.68351383e+01 -2.18467712e+01 1.52591062e+00 -3.00156002e+01
      1.40134501e+00 -2.12271748e+01 1.27624249e+00 -1.25213451e+01
      5.98063767e-01 -5.04250717e+00 -1.74954567e+01 3.52643937e-01
      -9.25327587e+00 2.99060941e-01 6.49499059e-01 2.86931705e+00
      7.22890711e+00 -1.38447329e-01 1.61256790e+01 1.34070560e-01
      -1.56783781e+01 2.70422974e+01 -1.20849895e+01 2.20717697e+01
      -6.17485762e+00 1.77469082e+01 4.13436800e-01 1.73737183e+01
      5.36038208e+00 1.73415585e+01 1.13134155e+01 1.96153908e+01
      1.66274529e+01 2.65019073e+01 1.10409508e+01 2.85204029e+01
      6.42643976e+00 2.88725033e+01 1.81842756e+00 3.02239094e+01
      -4.12171888e+00 2.99321575e+01 -9.39929962e+00 2.86532841e+01
      -9.09682274e+00 2.43648777e+01 -4.49955034e+00 2.13617306e+01
      7.73792088e-01 2.19881744e+01 7.69028091e+00 2.12824841e+01
      1.19980192e+01 2.45580959e+01 6.06828594e+00 2.45966454e+01
      1.12770450e+00 2.56115913e+01 -4.14958382e+00 2.56458969e+01</_>
    <_>
      -6.25553551e+01 -2.89162178e+01 -6.18512917e+01 -1.23359547e+01
      -5.92960854e+01 6.66002572e-01 -5.56983948e+01 1.91408386e+01
      -4.80960808e+01 2.97445202e+01 -4.09059486e+01 3.93313446e+01
      -2.79180908e+01 4.75152893e+01 -1.43255882e+01 5.42702103e+01
      -8.85822654e-01 5.86169167e+01 1.49360027e+01 5.69179497e+01
      2.93988895e+01 5.01138611e+01 4.22651405e+01 4.39246254e+01
      5.41191711e+01 3.57294083e+01 6.33780022e+01 2.33687267e+01
      6.96412430e+01 7.38159704e+00 7.32697830e+01 -1.18992901e+01
      7.14829559e+01 -2.91062145e+01 5.21807137e+01 -4.14172211e+01
      4.43216896e+01 -4.77219658e+01 3.44113503e+01 -4.93689842e+01
      2.39644489e+01 -4.82638168e+01 1.30972452e+01 -4.36947937e+01
      -1.52358713e+01 -4.34146423e+01 -2.61866112e+01 -4.77612190e+01
      -3.66501503e+01 -4.86619987e+01 -4.65365868e+01 -4.68180313e+01
      -5.42730713e+01 -4.03536911e+01 -4.21383629e+01 -2.91762238e+01
      -3.48284264e+01 -3.41438179e+01 -2.61810341e+01 -3.43446884e+01
      -1.81346722e+01 -2.75777283e+01 -2.63264542e+01 -2.56753197e+01
      -3.39428864e+01 -2.55398598e+01 1.60427532e+01 -2.93980331e+01
      2.25288181e+01 -3.63914871e+01 3.35483437e+01 -3.74381599e+01
      4.12699165e+01 -3.03108349e+01 3.38365631e+01 -2.74135227e+01
      2.41723080e+01 -2.68004894e+01 -9.65652525e-01 -3.25780945e+01
      -8.73145580e-01 -2.30230503e+01 -7.86129296e-01 -1.35545683e+01
      -8.38782668e-01 -6.16324329e+00 -1.84976330e+01 -5.39189100e-01
      -1.04769049e+01 3.42706442e-01 -8.74875128e-01 4.22962379e+00
      6.08140612e+00 -7.07637131e-01 1.46848640e+01 -1.60105181e+00
      -1.63567104e+01 2.77311993e+01 -1.35624752e+01 2.27023792e+01
      -8.64664364e+00 1.82343254e+01 -1.03809154e+00 1.80993519e+01
      5.14932013e+00 1.73592052e+01 1.02005920e+01 2.05075836e+01
      1.51017990e+01 2.67707958e+01 1.14617519e+01 2.94274864e+01
      7.04180765e+00 3.07508602e+01 9.19793785e-01 3.25219727e+01
      -6.35035849e+00 3.26354675e+01 -1.16956224e+01 3.02089825e+01
      -1.16119299e+01 2.60474434e+01 -7.24377346e+00 2.40320129e+01
      3.29225242e-01 2.32118607e+01 6.19232273e+00 2.28399487e+01
      1.02042618e+01 2.60463562e+01 4.38511705e+00 2.71108246e+01
      -8.29354882e-01 2.67462521e+01 -7.00265360e+00 2.78331852e+01</_>
    <_>
      -6.75500183e+01 -2.83717880e+01 -6.66944885e+01 -1.33800182e+01
      -6.40222702e+01 3.51916194e+00 -6.03292961e+01 1.97111530e+01
      -5.48352127e+01 3.36990280e+01 -4.46011696e+01 4.29557037e+01
      -3.35436859e+01 4.94779892e+01 -1.75292168e+01 5.73831596e+01
      -1.13353245e-01 5.90896759e+01 1.87592659e+01 5.74609108e+01
      3.46360664e+01 5.13917961e+01 4.82316475e+01 4.18892441e+01
      5.67306099e+01 3.18858604e+01 6.15499153e+01 1.92944832e+01
      6.44032211e+01 5.64577723e+00 6.39610023e+01 -1.07078600e+01
      6.41709290e+01 -2.35402431e+01 4.93412666e+01 -4.39099236e+01
      4.27483902e+01 -5.05902176e+01 3.51234550e+01 -5.11609650e+01
      2.76999989e+01 -4.97291069e+01 1.87213192e+01 -4.65877686e+01
      -1.64341526e+01 -4.78849792e+01 -2.52813454e+01 -4.97511292e+01
      -3.63983765e+01 -5.09146690e+01 -4.39355316e+01 -4.98563271e+01
      -5.08497200e+01 -4.40318069e+01 -4.13734474e+01 -2.76879520e+01
      -3.40192947e+01 -3.19905815e+01 -2.19015331e+01 -3.27874985e+01
      -1.55224180e+01 -2.40131645e+01 -2.35578480e+01 -2.19868851e+01
      -3.49253540e+01 -2.14066963e+01 1.54388227e+01 -2.51939449e+01
      2.31956329e+01 -3.08551826e+01 3.28310013e+01 -3.17243519e+01
      4.11939163e+01 -2.72736778e+01 3.24811668e+01 -2.33737240e+01
      2.44748878e+01 -2.25923500e+01 7.22698689e-01 -3.14770622e+01
      9.10669565e-01 -2.27770710e+01 1.10789061e+00 -1.41615524e+01
      7.43115187e-01 -7.12404346e+00 -1.67122688e+01 -2.21856189e+00
      -7.41638470e+00 -1.04191162e-01 3.74792576e-01 2.46824503e+00
      6.55788898e+00 -2.41870776e-01 1.49085236e+01 1.07982039e-01
      -1.88376312e+01 2.60409870e+01 -1.22120104e+01 2.07240963e+01
      -7.00333500e+00 1.74943733e+01 -4.46718037e-01 1.46705561e+01
      6.38849878e+00 1.54816990e+01 1.31330042e+01 2.00169201e+01
      1.88923931e+01 2.40357533e+01 1.35408516e+01 2.81368828e+01
      8.75619984e+00 3.00015106e+01 1.09751940e+00 3.19247589e+01
      -5.28707838e+00 3.26322594e+01 -1.33380547e+01 3.05470448e+01
      -1.33244352e+01 2.51906338e+01 -7.02762079e+00 2.28540325e+01
      -1.51443076e+00 2.20036621e+01 3.73894715e+00 2.16405334e+01
      9.32602215e+00 2.24118347e+01 7.15138531e+00 2.47296371e+01
      2.36483574e-01 2.64148159e+01 -6.74160528e+00 2.64750652e+01</_>
    <_>
      -6.34018822e+01 -2.94949341e+01 -6.18458290e+01 -1.30621309e+01
      -5.91525192e+01 2.74431086e+00 -5.55798798e+01 2.00251846e+01
      -5.00830650e+01 3.51472168e+01 -3.92862701e+01 4.35024414e+01
      -2.49369678e+01 4.97527809e+01 -1.26930351e+01 5.50974617e+01
      1.22882819e+00 5.76877899e+01 1.34050550e+01 5.50575294e+01
      2.50651131e+01 4.98532791e+01 3.76534653e+01 4.21786804e+01
      4.67211723e+01 3.31375465e+01 5.38735237e+01 2.10413036e+01
      5.74725723e+01 3.57676578e+00 5.96062698e+01 -1.36478500e+01
      6.06313324e+01 -3.05962353e+01 5.07277527e+01 -4.46901360e+01
      4.34384727e+01 -5.16942940e+01 3.40891914e+01 -5.36449242e+01
      2.41786137e+01 -5.25989265e+01 1.37800255e+01 -4.77807045e+01
      -1.30452366e+01 -4.79080658e+01 -2.33167439e+01 -5.28326530e+01
      -3.31993332e+01 -5.39781227e+01 -4.25942078e+01 -5.21131973e+01
      -5.00799789e+01 -4.51797256e+01 -4.31917496e+01 -3.29145546e+01
      -3.44402695e+01 -3.79968071e+01 -2.46934013e+01 -3.75673141e+01
      -1.57630463e+01 -2.70557270e+01 -2.38338737e+01 -2.59025764e+01
      -3.54694138e+01 -2.54003029e+01 1.66273937e+01 -2.87537613e+01
      2.34563503e+01 -3.68917122e+01 3.37075768e+01 -3.82335434e+01
      4.54173851e+01 -3.07531300e+01 3.54650269e+01 -2.86676178e+01
      2.61682091e+01 -2.58020973e+01 2.04361558e-01 -3.58568192e+01
      6.35327697e-02 -2.54174461e+01 -7.62755200e-02 -1.50786858e+01
      -2.28944272e-01 -4.23029757e+00 -1.71531372e+01 1.57960880e+00
      -8.76821899e+00 4.68137026e+00 -3.79770607e-01 7.38783598e+00
      8.07027721e+00 4.76242113e+00 1.65381470e+01 1.74285674e+00
      -1.56713476e+01 2.94857693e+01 -1.04035854e+01 2.26731720e+01
      -6.09213543e+00 1.86738949e+01 3.10734715e-02 1.91741638e+01
      5.48445606e+00 1.88932457e+01 1.09264307e+01 2.33297520e+01
      1.52537794e+01 2.80276489e+01 1.32512741e+01 3.47545662e+01
      8.60519505e+00 3.83596954e+01 9.57723439e-01 3.88209839e+01
      -5.21730328e+00 3.90429420e+01 -1.17387514e+01 3.45254173e+01
      -8.98541260e+00 2.75001965e+01 -5.06097984e+00 2.38361282e+01
      -3.51278454e-01 2.38540821e+01 5.43671989e+00 2.39673328e+01
      9.54677486e+00 2.68349228e+01 5.38242674e+00 2.90336876e+01
      -7.04443157e-01 2.81767578e+01 -5.02712679e+00 2.78235912e+01</_>
    <_>
      -6.40691681e+01 -2.91007614e+01 -6.30461426e+01 -1.22193642e+01
      -6.12532082e+01 3.58603895e-02 -5.74540100e+01 1.53267651e+01
      -5.35994949e+01 3.09598160e+01 -4.39007988e+01 4.22443466e+01
      -2.66029053e+01 5.11673546e+01 -1.17367220e+01 5.61131935e+01
      2.59092331e+00 5.93220253e+01 1.78818321e+01 5.55228119e+01
      3.28795929e+01 4.93028526e+01 4.19089470e+01 4.24842987e+01
      5.13554726e+01 3.23294601e+01 5.73968582e+01 1.97988491e+01
      6.07822685e+01 2.82886410e+00 6.35002480e+01 -1.01312590e+01
      6.43094711e+01 -2.53117313e+01 5.33147240e+01 -4.31938324e+01
      4.33289261e+01 -4.98739815e+01 3.30186348e+01 -5.24126778e+01
      2.29749374e+01 -5.13696594e+01 1.67433510e+01 -4.58709412e+01
      -1.51268787e+01 -4.76324768e+01 -2.61870708e+01 -5.23827019e+01
      -3.64285126e+01 -5.29628372e+01 -4.65935783e+01 -5.15816841e+01
      -5.40024605e+01 -4.49533501e+01 -4.36724396e+01 -2.84803238e+01
      -3.62873955e+01 -3.39552078e+01 -2.55551090e+01 -3.47425957e+01
      -1.81878071e+01 -2.93924885e+01 -2.53274212e+01 -2.46013718e+01
      -3.55688591e+01 -2.51815071e+01 1.74441643e+01 -2.62722530e+01
      2.46362801e+01 -3.33600769e+01 3.37194405e+01 -3.28140030e+01
      4.47584839e+01 -2.69178352e+01 3.53535309e+01 -2.33299980e+01
      2.59172115e+01 -2.40028172e+01 -9.09687951e-02 -3.18876801e+01
      -1.26292065e-01 -2.25024490e+01 -1.64694071e-01 -1.32031441e+01
      -1.95754185e-01 -3.45165539e+00 -1.73520107e+01 -4.57712710e-01
      -8.95530701e+00 -1.49557173e-01 -2.32775286e-01 7.00167894e+00
      7.53403997e+00 -8.12872708e-01 1.54924107e+01 -1.43390346e+00
      -1.59088192e+01 2.67612286e+01 -1.16569653e+01 2.24772835e+01
      -7.06968117e+00 1.83222275e+01 -5.07491946e-01 1.83535938e+01
      4.34634399e+00 1.77802620e+01 1.17375174e+01 2.19769058e+01
      1.71435356e+01 2.74033642e+01 1.32400227e+01 3.18038502e+01
      6.96342802e+00 3.41905441e+01 1.64469755e+00 3.49956665e+01
      -4.89363384e+00 3.38108444e+01 -1.05689373e+01 3.02215805e+01
      -1.01230898e+01 2.57420540e+01 -5.78123426e+00 2.22707329e+01
      -4.80209701e-02 2.35482693e+01 5.02258348e+00 2.34344234e+01
      1.06290598e+01 2.50650902e+01 6.28721094e+00 2.85363884e+01
      -1.58437476e-01 2.81566830e+01 -5.42197037e+00 2.66575985e+01</_>
    <_>
      -6.96184692e+01 -2.49187012e+01 -6.71646652e+01 -9.27816486e+00
      -6.34048119e+01 5.13963270e+00 -5.95134392e+01 1.73762188e+01
      -5.37318420e+01 3.04823914e+01 -4.13874969e+01 4.06966858e+01
      -2.92233353e+01 4.99014893e+01 -1.67334175e+01 5.42467842e+01
      -4.60330695e-01 5.75171547e+01 1.78095207e+01 5.25963478e+01
      2.75386391e+01 4.89918671e+01 4.42669907e+01 4.31629333e+01
      5.55040855e+01 3.35977249e+01 6.16682892e+01 2.06224918e+01
      6.44188690e+01 6.21078110e+00 6.67288589e+01 -5.62285519e+00
      6.90418701e+01 -2.07117233e+01 4.57434120e+01 -4.81664619e+01
      3.80827637e+01 -5.20159874e+01 2.85566673e+01 -5.31397896e+01
      1.93869743e+01 -5.10382805e+01 1.39003820e+01 -4.82555389e+01
      -1.76645641e+01 -4.91106491e+01 -2.38928032e+01 -5.31282768e+01
      -3.38254890e+01 -5.45600777e+01 -4.15724678e+01 -5.26255951e+01
      -4.74107552e+01 -4.65490913e+01 -4.50381165e+01 -2.83603897e+01
      -3.39547501e+01 -3.28400078e+01 -2.56535473e+01 -3.30416336e+01
      -1.68898296e+01 -2.56865540e+01 -2.61387234e+01 -2.43017845e+01
      -3.45202293e+01 -2.48265781e+01 1.83409977e+01 -2.77659473e+01
      2.54823456e+01 -3.18099651e+01 3.66407814e+01 -3.23273239e+01
      4.37538719e+01 -2.69565048e+01 3.71910896e+01 -2.40646362e+01
      2.64295483e+01 -2.32382088e+01 -9.37756777e-01 -2.90473366e+01
      -7.60101259e-01 -2.02532787e+01 -5.92079461e-01 -1.15464001e+01
      1.33223739e-02 -3.67215180e+00 -1.58282290e+01 2.45030805e-01
      -8.16348076e+00 8.49040091e-01 5.32654881e-01 4.22139120e+00
      9.14705372e+00 3.77350241e-01 1.70117626e+01 -4.91721421e-01
      -1.39418650e+01 2.71639252e+01 -9.20750237e+00 2.08564529e+01
      -4.60466099e+00 1.67301922e+01 8.40347886e-01 1.68540115e+01
      6.67368031e+00 1.72976284e+01 1.00831842e+01 2.19796753e+01
      1.35826550e+01 2.73870678e+01 1.02056265e+01 2.95641499e+01
      4.87939119e+00 3.05154514e+01 3.09484780e-01 3.17459450e+01
      -5.84258366e+00 3.17002583e+01 -1.00510712e+01 2.96359196e+01
      -8.29580116e+00 2.58243256e+01 -5.59693766e+00 2.40751076e+01
      -2.40797773e-01 2.34832401e+01 6.26963377e+00 2.34893265e+01
      1.01593580e+01 2.59516277e+01 5.79910660e+00 2.57079716e+01
      7.49378353e-02 2.63405056e+01 -4.20611334e+00 2.68135738e+01</_>
    <_>
      -6.59777451e+01 -3.29614601e+01 -6.81195145e+01 -1.42419052e+01
      -6.54807053e+01 3.13392639e+00 -5.90312004e+01 1.92407055e+01
      -4.86227455e+01 2.75569000e+01 -3.71705093e+01 3.25347290e+01
      -2.74153061e+01 3.66675987e+01 -1.66342163e+01 4.55996170e+01
      -9.73306000e-01 5.02533875e+01 1.35616884e+01 4.88089256e+01
      2.47385216e+01 4.17634315e+01 3.97019386e+01 3.73591309e+01
      5.01575050e+01 2.93935356e+01 5.85923042e+01 2.06019840e+01
      6.29480972e+01 5.29513454e+00 6.71789932e+01 -1.16340542e+01
      6.95199203e+01 -2.77672691e+01 5.17920990e+01 -5.08165245e+01
      4.23601761e+01 -5.49742966e+01 3.16549015e+01 -5.44751778e+01
      2.36106243e+01 -5.32053261e+01 1.28812284e+01 -4.87959328e+01
      -1.72645493e+01 -4.71309929e+01 -3.02581062e+01 -5.10085983e+01
      -3.71780434e+01 -5.21076927e+01 -4.63415565e+01 -5.27029305e+01
      -5.40309753e+01 -4.69015770e+01 -4.47461853e+01 -2.77610264e+01
      -3.46131401e+01 -3.14681797e+01 -2.31865883e+01 -3.10472012e+01
      -1.81065044e+01 -2.42778778e+01 -2.51306515e+01 -2.24302597e+01
      -3.53830795e+01 -2.45735931e+01 1.83121834e+01 -2.47998009e+01
      2.55538540e+01 -3.21927223e+01 3.59856300e+01 -3.20203667e+01
      4.73880730e+01 -2.76891212e+01 3.62851334e+01 -2.39073029e+01
      2.82467556e+01 -2.26379108e+01 2.67616892e+00 -2.91302719e+01
      2.70219326e+00 -2.03457127e+01 2.48003054e+00 -1.05605230e+01
      1.58640504e+00 -1.04882658e+00 -1.81077900e+01 5.34579706e+00
      -9.44104290e+00 7.93644857e+00 8.17249417e-01 1.00793285e+01
      9.35241699e+00 6.81451893e+00 1.68932495e+01 3.30697322e+00
      -2.00689640e+01 2.63338299e+01 -1.39454346e+01 2.55371037e+01
      -7.84680223e+00 2.44170761e+01 -1.67348850e+00 2.42669201e+01
      4.20143700e+00 2.44649620e+01 1.10462341e+01 2.45883217e+01
      1.77175636e+01 2.66822033e+01 1.33349676e+01 2.89709167e+01
      9.20685673e+00 3.02644291e+01 4.02829075e+00 3.06631889e+01
      -2.07034421e+00 3.17831993e+01 -7.64685869e+00 3.12369804e+01
      -1.37462816e+01 2.81234379e+01 -5.68299294e+00 2.71773472e+01
      2.48619175e+00 2.75298462e+01 7.63396215e+00 2.68082390e+01
      1.25390158e+01 2.70809593e+01 6.49017000e+00 2.88475742e+01
      -9.76321340e-01 2.90972900e+01 -8.79098892e+00 2.90486126e+01</_>
    <_>
      -6.65517120e+01 -2.72114086e+01 -6.65106277e+01 -7.78298903e+00
      -6.75161819e+01 6.75354433e+00 -6.56882324e+01 2.16023960e+01
      -5.91099319e+01 3.38123169e+01 -4.61228676e+01 4.29205017e+01
      -2.93970928e+01 4.70344086e+01 -1.58064346e+01 5.07944946e+01
      3.33726692e+00 5.32762451e+01 1.91393585e+01 4.86946182e+01
      3.21713638e+01 4.60191345e+01 4.45828743e+01 4.32811012e+01
      5.56737404e+01 3.52990341e+01 6.37303123e+01 2.31569901e+01
      6.54077301e+01 5.51377344e+00 6.52485504e+01 -7.24171448e+00
      6.69518890e+01 -2.23345089e+01 5.18253822e+01 -4.34654388e+01
      4.09706993e+01 -4.88292313e+01 3.23385658e+01 -4.85334206e+01
      2.27255650e+01 -4.80195923e+01 1.37029600e+01 -4.42640953e+01
      -1.53985205e+01 -4.59571648e+01 -2.62272854e+01 -4.87705345e+01
      -3.65631714e+01 -5.02582512e+01 -4.59297180e+01 -4.90816116e+01
      -5.33119736e+01 -4.29147148e+01 -4.28950577e+01 -2.80453262e+01
      -3.29631996e+01 -3.13844280e+01 -2.38455696e+01 -3.03554325e+01
      -1.57453985e+01 -2.59375248e+01 -2.44147434e+01 -2.45178318e+01
      -3.36733398e+01 -2.50920792e+01 1.88107738e+01 -2.45850868e+01
      2.54952393e+01 -3.01957207e+01 3.31124039e+01 -2.99710770e+01
      4.57514610e+01 -2.63183880e+01 3.53699036e+01 -2.46212883e+01
      2.72656002e+01 -2.33096600e+01 4.49407101e-01 -2.86370487e+01
      4.94639516e-01 -2.01676521e+01 5.34284234e-01 -1.17810698e+01
      5.71566701e-01 -2.97639418e+00 -1.68382149e+01 6.91680849e-01
      -8.32167244e+00 4.20033455e+00 6.20882988e-01 6.44970798e+00
      9.55016613e+00 4.51399422e+00 1.71901321e+01 1.02829003e+00
      -2.72210217e+01 2.21261845e+01 -1.75187492e+01 1.73790913e+01
      -9.17500305e+00 1.46078129e+01 4.92108762e-02 1.46925907e+01
      8.32918072e+00 1.46708021e+01 1.88647060e+01 1.82952690e+01
      2.91391735e+01 2.21143875e+01 1.92406406e+01 2.80047569e+01
      1.13151684e+01 2.97175903e+01 7.30717242e-01 3.06970043e+01
      -8.96146393e+00 2.95957127e+01 -1.99959679e+01 2.86716137e+01
      -1.99210510e+01 2.23150520e+01 -1.04129686e+01 1.98843498e+01
      -1.15297961e+00 1.96519299e+01 8.97965527e+00 2.01604633e+01
      1.76459446e+01 2.24085369e+01 9.87443733e+00 2.42134457e+01
      1.18269026e+00 2.43755169e+01 -1.11840172e+01 2.39360847e+01</_>
    <_>
      -6.15456772e+01 -2.63457623e+01 -5.93942375e+01 -1.12944012e+01
      -5.72280693e+01 4.41879892e+00 -5.27865791e+01 1.90698280e+01
      -4.84730377e+01 3.01117535e+01 -4.01974831e+01 4.16762428e+01
      -2.77866058e+01 4.88194656e+01 -1.40777845e+01 5.56028671e+01
      -1.48591077e+00 5.84716835e+01 1.42928629e+01 5.82682304e+01
      2.85877876e+01 5.28598747e+01 4.14386482e+01 4.38789825e+01
      5.13088493e+01 3.40115814e+01 5.84486160e+01 2.12769909e+01
      6.26148605e+01 8.31060886e+00 6.43448715e+01 -8.85008430e+00
      6.60859146e+01 -2.56799927e+01 4.98363914e+01 -4.94740219e+01
      4.24383965e+01 -5.41575089e+01 3.31653748e+01 -5.61510887e+01
      2.33513565e+01 -5.45132027e+01 1.65987949e+01 -5.00118370e+01
      -1.68303661e+01 -4.65913200e+01 -2.59005508e+01 -5.22050743e+01
      -3.38321953e+01 -5.32573318e+01 -4.39694176e+01 -5.16012878e+01
      -4.99908409e+01 -4.48209114e+01 -4.05583115e+01 -2.83643761e+01
      -3.41805267e+01 -3.41705284e+01 -2.56496754e+01 -3.47867546e+01
      -1.84505520e+01 -2.61447182e+01 -2.59526405e+01 -2.42529087e+01
      -3.48690758e+01 -2.52649021e+01 1.63384018e+01 -2.82933578e+01
      2.43080330e+01 -3.57938080e+01 3.25191498e+01 -3.60681915e+01
      4.22656937e+01 -2.98147106e+01 3.38333511e+01 -2.62507076e+01
      2.49901066e+01 -2.52928772e+01 -3.32118906e-02 -3.19557762e+01
      -3.87983501e-01 -2.25314369e+01 -7.38099337e-01 -1.31882172e+01
      -9.83960330e-01 -5.34976196e+00 -1.65544300e+01 1.08738029e+00
      -8.03438759e+00 1.47702992e-01 -1.65064526e+00 4.21010542e+00
      6.07589769e+00 -6.54979765e-01 1.43601866e+01 1.04047763e+00
      -1.67711010e+01 2.41143341e+01 -1.23194170e+01 1.96898670e+01
      -5.76944876e+00 1.88160210e+01 1.44555807e+00 1.82437515e+01
      7.71949959e+00 1.90202484e+01 1.26960335e+01 2.01712513e+01
      1.71426182e+01 2.52845249e+01 1.34365568e+01 3.26425209e+01
      8.64328384e+00 3.67546043e+01 -1.80288398e+00 3.90759430e+01
      -9.43663692e+00 3.70275841e+01 -1.42285309e+01 3.12708893e+01
      -1.21435385e+01 2.49532032e+01 -7.92760992e+00 2.31638584e+01
      -1.37764227e+00 2.22900028e+01 5.54683447e+00 2.27135983e+01
      1.25189991e+01 2.47840652e+01 7.40572786e+00 2.92306499e+01
      -1.42301202e+00 3.08429813e+01 -9.01649094e+00 2.97794132e+01</_>
    <_>
      -6.62431030e+01 -2.57621002e+01 -6.63791962e+01 -1.16314392e+01
      -6.37438850e+01 2.47112346e+00 -5.97263260e+01 1.60095787e+01
      -5.34762764e+01 3.14592495e+01 -4.42148438e+01 4.30022659e+01
      -3.13891850e+01 5.09080963e+01 -1.77482834e+01 5.74176903e+01
      -2.19615579e+00 6.08611794e+01 1.66129036e+01 5.79031219e+01
      3.23361740e+01 5.10917282e+01 4.63825684e+01 4.29136086e+01
      5.59625092e+01 3.11838875e+01 6.10856934e+01 1.72777557e+01
      6.53865738e+01 4.48862934e+00 6.63547516e+01 -9.37541103e+00
      6.59281616e+01 -2.43297462e+01 4.74221497e+01 -4.57529411e+01
      3.93324585e+01 -5.14894066e+01 3.21183586e+01 -5.22499237e+01
      2.40988579e+01 -5.10599861e+01 1.63670063e+01 -4.82099419e+01
      -1.65950813e+01 -4.75966377e+01 -2.82672844e+01 -5.10836716e+01
      -3.74079781e+01 -5.07117615e+01 -4.45841522e+01 -4.81466370e+01
      -5.11919823e+01 -4.41993141e+01 -3.88378410e+01 -2.77028198e+01
      -3.25078278e+01 -3.19223804e+01 -2.39213676e+01 -3.22844505e+01
      -1.69276066e+01 -2.57074966e+01 -2.41093960e+01 -2.36966438e+01
      -3.21527672e+01 -2.44445267e+01 1.90963745e+01 -2.52431412e+01
      2.51247158e+01 -3.16727772e+01 3.39861488e+01 -3.20418549e+01
      4.15229912e+01 -2.65748501e+01 3.43608437e+01 -2.26261368e+01
      2.60466328e+01 -2.25418854e+01 1.65829515e+00 -3.02247467e+01
      1.37979758e+00 -2.13779030e+01 1.10890675e+00 -1.26157627e+01
      7.25233734e-01 -6.21371460e+00 -1.69654312e+01 -1.87903774e+00
      -7.26483965e+00 -1.70227396e+00 8.06612194e-01 1.81700802e+00
      7.69651508e+00 -1.85388327e+00 1.60261898e+01 4.00654227e-03
      -1.69456844e+01 2.72129345e+01 -1.03715582e+01 1.99399223e+01
      -6.27831078e+00 1.38049574e+01 1.10663183e-01 1.54032259e+01
      5.64223766e+00 1.42384987e+01 1.04048538e+01 1.94543343e+01
      1.51983385e+01 2.77166061e+01 1.02491217e+01 3.16471195e+01
      4.73017740e+00 3.36411171e+01 -2.58356422e-01 3.36916695e+01
      -7.19736958e+00 3.20989609e+01 -1.22027531e+01 3.04866714e+01
      -1.08781185e+01 2.46548138e+01 -4.53404284e+00 2.18230782e+01
      -1.05411299e-01 2.12238522e+01 7.66993856e+00 2.30831337e+01
      1.10237036e+01 2.58208370e+01 6.04078579e+00 2.64256668e+01
      2.22955301e-01 2.64846191e+01 -5.59771156e+00 2.62643147e+01</_>
    <_>
      -6.88978348e+01 -2.67926865e+01 -6.64164963e+01 -9.81801033e+00
      -6.29981194e+01 6.15656710e+00 -5.64611359e+01 1.91366711e+01
      -4.83831711e+01 3.01379948e+01 -4.03943672e+01 3.82387047e+01
      -2.60532131e+01 4.38860664e+01 -1.58723135e+01 5.03152733e+01
      -3.74558493e-02 5.23693810e+01 1.39793530e+01 4.80557480e+01
      2.72665119e+01 4.11855698e+01 3.96061897e+01 3.46694298e+01
      4.99826508e+01 2.72529297e+01 5.60732002e+01 1.67598476e+01
      6.00696716e+01 1.18494523e+00 6.22441978e+01 -1.11145134e+01
      6.69282761e+01 -2.54243031e+01 5.03816376e+01 -4.93375320e+01
      3.99304504e+01 -5.41419563e+01 3.15521431e+01 -5.45155373e+01
      2.32053719e+01 -5.39205475e+01 1.62388554e+01 -5.04775925e+01
      -9.43153381e+00 -4.83542061e+01 -1.92109261e+01 -5.22162018e+01
      -2.85630283e+01 -5.28812752e+01 -3.84924850e+01 -5.15883598e+01
      -4.80626602e+01 -4.90249252e+01 -4.39514656e+01 -3.14622059e+01
      -3.73498459e+01 -3.61860809e+01 -2.64097748e+01 -3.62191200e+01
      -1.81137352e+01 -2.84463100e+01 -2.60433750e+01 -2.49666920e+01
      -3.57183342e+01 -2.56212616e+01 1.82681332e+01 -2.76970654e+01
      2.57442341e+01 -3.53423347e+01 3.44295807e+01 -3.53019447e+01
      4.36209526e+01 -2.98101025e+01 3.53893051e+01 -2.56795502e+01
      2.61209736e+01 -2.37723484e+01 3.20170462e-01 -3.16745510e+01
      5.75462393e-02 -2.16785507e+01 -1.97772786e-01 -1.17834644e+01
      -4.74289864e-01 -1.40024090e+00 -1.71298313e+01 1.77010155e+00
      -8.03802967e+00 4.36696577e+00 -4.97542769e-01 8.62505436e+00
      7.43226147e+00 5.15072727e+00 1.59972725e+01 1.33252144e+00
      -1.79329681e+01 2.65714607e+01 -1.22317314e+01 2.38108139e+01
      -5.22332096e+00 2.16539898e+01 1.19687438e+00 2.11217422e+01
      6.71123362e+00 2.25475922e+01 1.12519646e+01 2.36872387e+01
      1.58817520e+01 2.73990097e+01 1.26077881e+01 3.55485497e+01
      7.26600266e+00 3.95850105e+01 -1.04940128e+00 4.11432762e+01
      -8.52185631e+00 3.88115883e+01 -1.48389378e+01 3.25850487e+01
      -1.11480236e+01 2.73148365e+01 -5.39439964e+00 2.61631794e+01
      1.03102696e+00 2.59539566e+01 7.47207594e+00 2.60621300e+01
      1.13776016e+01 2.75456715e+01 7.98852825e+00 3.21596451e+01
      -9.67296124e-01 3.37387695e+01 -7.11703253e+00 3.26515121e+01</_>
    <_>
      -6.95473709e+01 -2.85698299e+01 -6.84063644e+01 -1.16672173e+01
      -6.60676346e+01 3.15402007e+00 -6.02938995e+01 2.04651241e+01
      -4.91299095e+01 3.35071449e+01 -3.68692741e+01 4.14415398e+01
      -2.16819725e+01 4.62586670e+01 -1.07501688e+01 5.06077118e+01
      1.86256933e+00 5.35520210e+01 1.52790012e+01 4.95323715e+01
      2.65477142e+01 4.39591827e+01 3.84766541e+01 4.01844368e+01
      5.03888626e+01 3.14675999e+01 5.93771324e+01 1.86642208e+01
      6.41679077e+01 5.76011944e+00 6.55319901e+01 -9.64537430e+00
      6.68812408e+01 -2.27593117e+01 5.26907272e+01 -4.29239731e+01
      4.39410706e+01 -5.02728653e+01 3.47649117e+01 -5.07173462e+01
      2.59861240e+01 -4.85791702e+01 1.78195095e+01 -4.50114746e+01
      -1.95667305e+01 -4.85945511e+01 -2.87695789e+01 -5.39795227e+01
      -3.78713531e+01 -5.63383026e+01 -4.63308640e+01 -5.46269798e+01
      -5.30927010e+01 -4.93783646e+01 -4.51887245e+01 -2.77231770e+01
      -3.64572983e+01 -3.16445389e+01 -2.57732639e+01 -3.15092220e+01
      -1.66518574e+01 -2.68338013e+01 -2.55632687e+01 -2.57938766e+01
      -3.53617134e+01 -2.59264812e+01 1.64927158e+01 -2.62746887e+01
      2.50298347e+01 -3.06537361e+01 3.57180443e+01 -3.04275131e+01
      4.49706345e+01 -2.62102776e+01 3.53648071e+01 -2.47352257e+01
      2.55653229e+01 -2.49388905e+01 7.40563750e-01 -3.05447960e+01
      9.14792359e-01 -2.22191811e+01 6.45786762e-01 -1.19311848e+01
      -2.91834265e-01 -3.43012667e+00 -1.72093201e+01 2.45613535e-03
      -9.98034096e+00 4.93582249e+00 -6.45163476e-01 8.77376652e+00
      5.90838909e+00 6.97656822e+00 1.53786945e+01 2.06363726e+00
      -2.09437065e+01 2.45013733e+01 -1.18571320e+01 2.19280319e+01
      -6.35588694e+00 2.06835117e+01 1.10770655e+00 1.98822327e+01
      9.00806236e+00 1.93986626e+01 1.44813890e+01 2.04274044e+01
      1.89439583e+01 2.46577797e+01 1.43794575e+01 3.18387375e+01
      7.89380074e+00 3.40016670e+01 -1.91097760e+00 3.44093018e+01
      -8.87494183e+00 3.36055946e+01 -1.70403099e+01 2.99595032e+01
      -9.73416996e+00 2.57746658e+01 -4.15856838e+00 2.26158218e+01
      3.31496239e+00 2.18129749e+01 7.56053734e+00 2.22825603e+01
      1.39538469e+01 2.43056793e+01 6.28845978e+00 2.62783203e+01
      3.61957133e-01 2.72134972e+01 -5.36275101e+00 2.69773140e+01</_>
    <_>
      -6.34471893e+01 -2.36970615e+01 -6.18139801e+01 -9.12450695e+00
      -5.99348526e+01 4.77861118e+00 -5.77387733e+01 1.86461964e+01
      -5.41000061e+01 3.10683613e+01 -4.68690071e+01 4.40432663e+01
      -3.41169777e+01 5.48022041e+01 -1.91555557e+01 6.24325523e+01
      -1.62192798e+00 6.43112488e+01 1.65699291e+01 6.06751709e+01
      3.28255692e+01 5.11508789e+01 4.63360100e+01 4.29044952e+01
      5.68864708e+01 3.40195885e+01 6.15502853e+01 1.84278259e+01
      6.35784454e+01 2.16119623e+00 6.60683899e+01 -9.98502636e+00
      6.71129074e+01 -2.35739422e+01 4.76591339e+01 -4.54489365e+01
      4.20550194e+01 -4.96348877e+01 3.36420326e+01 -5.31776581e+01
      2.55151386e+01 -5.13040276e+01 1.91779671e+01 -4.77128258e+01
      -1.71833439e+01 -4.87651672e+01 -2.64059315e+01 -5.09409027e+01
      -3.43579483e+01 -5.03706245e+01 -4.37600174e+01 -4.83540764e+01
      -5.00862541e+01 -4.18682251e+01 -4.24645081e+01 -2.54068165e+01
      -3.63833504e+01 -3.12158680e+01 -2.49092999e+01 -3.18599434e+01
      -1.81065006e+01 -2.55692406e+01 -2.55002842e+01 -2.28149662e+01
      -3.47911682e+01 -2.27364979e+01 1.89859943e+01 -2.65170059e+01
      2.60600719e+01 -3.21238670e+01 3.53864746e+01 -3.18853760e+01
      4.39770889e+01 -2.67578526e+01 3.56753349e+01 -2.35808811e+01
      2.70893993e+01 -2.29395580e+01 8.74618888e-01 -2.95549793e+01
      6.45270407e-01 -2.09461021e+01 4.06030297e-01 -1.24256878e+01
      1.04865476e-01 -6.12248182e+00 -1.56898632e+01 -1.14294314e+00
      -7.42087746e+00 -1.74874473e+00 -2.40193576e-01 2.25306058e+00
      5.78002930e+00 -1.30261421e+00 1.37320433e+01 -1.87290263e+00
      -1.43279104e+01 2.53271713e+01 -1.06083822e+01 1.84915829e+01
      -6.20844984e+00 1.47965851e+01 -2.29199469e-01 1.38055315e+01
      5.26477194e+00 1.41451416e+01 1.06585093e+01 1.93174782e+01
      1.29100037e+01 2.51554661e+01 9.46914673e+00 2.87504501e+01
      4.78586149e+00 2.99172096e+01 -7.65167117e-01 3.07333775e+01
      -6.05426598e+00 3.04902287e+01 -1.04943771e+01 2.80994320e+01
      -8.73667622e+00 2.37377453e+01 -5.28844357e+00 2.01419125e+01
      -1.81641668e-01 1.98904991e+01 4.35492992e+00 2.03448792e+01
      7.24579716e+00 2.32302589e+01 3.58442497e+00 2.49243298e+01
      -1.23357141e+00 2.48224411e+01 -5.74197388e+00 2.46858597e+01</_>
    <_>
      -6.77772751e+01 -2.54373627e+01 -6.62047577e+01 -1.06478024e+01
      -6.16132660e+01 4.57416487e+00 -5.88714943e+01 1.92168121e+01
      -5.31964912e+01 3.21159592e+01 -4.38102951e+01 4.29961662e+01
      -3.18863792e+01 5.19814835e+01 -1.80716629e+01 5.83986626e+01
      -1.15665114e+00 6.06004448e+01 1.59299469e+01 5.80665092e+01
      3.01924191e+01 5.13790436e+01 4.27538605e+01 4.21770248e+01
      5.29045639e+01 3.11022034e+01 5.94941025e+01 1.80847244e+01
      6.32569656e+01 3.37861967e+00 6.55474396e+01 -1.14084072e+01
      6.64021606e+01 -2.50628414e+01 4.89094353e+01 -4.44078751e+01
      4.28548164e+01 -4.92387009e+01 3.48459091e+01 -5.17146835e+01
      2.49760551e+01 -5.14622192e+01 1.53615913e+01 -4.76792336e+01
      -1.82666473e+01 -4.93479309e+01 -2.92409496e+01 -5.28586998e+01
      -3.84140739e+01 -5.31271286e+01 -4.68131065e+01 -4.91797333e+01
      -5.26131248e+01 -4.41292572e+01 -4.35775948e+01 -2.75676060e+01
      -3.32663994e+01 -3.18715057e+01 -2.40206890e+01 -3.12137566e+01
      -1.44745350e+01 -2.55765648e+01 -2.42677555e+01 -2.40232410e+01
      -3.30403519e+01 -2.41767845e+01 1.81790333e+01 -2.58943729e+01
      2.63207111e+01 -3.14762096e+01 3.40649300e+01 -3.25171928e+01
      4.62888603e+01 -2.65617161e+01 3.66671982e+01 -2.48507996e+01
      2.74435997e+01 -2.33562870e+01 1.98461163e+00 -2.95693340e+01
      1.67778337e+00 -2.06022892e+01 1.36529970e+00 -1.17289944e+01
      1.04018641e+00 -2.41493273e+00 -1.53576355e+01 2.47869945e+00
      -6.32540226e+00 1.99142575e+00 6.97253346e-01 7.56592894e+00
      8.50395584e+00 2.79296708e+00 1.69235363e+01 3.21374106e+00
      -1.99232254e+01 2.47632809e+01 -1.34592781e+01 2.11766548e+01
      -6.62739849e+00 1.95001011e+01 1.56511056e+00 1.87665310e+01
      8.82821178e+00 1.94029179e+01 1.55376072e+01 2.13273354e+01
      2.17637806e+01 2.49176579e+01 9.20312405e+00 2.56717892e+01
      3.52772284e+00 2.71327305e+01 -1.67805219e+00 2.69184685e+01
      -7.56906176e+00 2.72229500e+01 -1.29789820e+01 2.58500862e+01
      -9.42921925e+00 2.36006222e+01 -4.96928501e+00 2.19752960e+01
      -6.85145319e-01 2.15675449e+01 6.04562473e+00 2.15093517e+01
      1.15259600e+01 2.32600803e+01 3.65234208e+00 2.35432034e+01
      -6.45360887e-01 2.39416237e+01 -6.00407553e+00 2.49406910e+01</_>
    <_>
      -6.63409119e+01 -2.88267155e+01 -6.80362930e+01 -1.23651609e+01
      -6.70142059e+01 3.61802983e+00 -6.13005142e+01 1.97884827e+01
      -5.65154076e+01 3.20993767e+01 -4.39544296e+01 4.37106476e+01
      -2.95707951e+01 5.21312103e+01 -1.36590824e+01 5.93206825e+01
      2.75231981e+00 5.94528542e+01 1.77534981e+01 5.37850876e+01
      2.92890739e+01 4.90417061e+01 4.03697395e+01 4.27510262e+01
      5.02080688e+01 3.49327126e+01 5.78373947e+01 2.01860485e+01
      5.92770958e+01 7.24774170e+00 6.18509140e+01 -6.91743612e+00
      6.30909615e+01 -2.49375286e+01 4.37538986e+01 -4.99525414e+01
      3.65700455e+01 -5.39604568e+01 2.99058170e+01 -5.44868393e+01
      2.29211426e+01 -5.34242020e+01 1.64101906e+01 -5.00492973e+01
      -1.39709377e+01 -4.80674362e+01 -2.34286156e+01 -5.00492439e+01
      -3.16439285e+01 -5.05034370e+01 -4.05852890e+01 -4.93751793e+01
      -5.01641426e+01 -4.46974144e+01 -4.05641632e+01 -2.90625038e+01
      -3.25785484e+01 -3.44546280e+01 -2.43937130e+01 -3.47761955e+01
      -1.70758018e+01 -2.76431999e+01 -2.32847137e+01 -2.66110363e+01
      -3.26655006e+01 -2.66365910e+01 1.96679573e+01 -2.67446899e+01
      2.52690945e+01 -3.32142029e+01 3.30566521e+01 -3.39030113e+01
      4.06494789e+01 -2.95170612e+01 3.57013054e+01 -2.62035561e+01
      2.79254093e+01 -2.55039406e+01 2.64247084e+00 -3.16158237e+01
      2.39826345e+00 -2.20687847e+01 2.16174173e+00 -1.26121349e+01
      2.23074365e+00 -3.40396070e+00 -1.60797176e+01 -2.29044557e+00
      -6.24026060e+00 -3.34891319e-01 1.64034593e+00 7.93580008e+00
      9.46101665e+00 1.78445697e+00 1.76111336e+01 2.93187737e-01
      -1.65395203e+01 2.58444920e+01 -9.69266129e+00 2.12740593e+01
      -5.11128426e+00 1.83690796e+01 7.50058413e-01 1.85216389e+01
      5.83608055e+00 1.87159328e+01 1.10444250e+01 2.20244961e+01
      1.55271854e+01 2.69267616e+01 1.25661907e+01 3.09504070e+01
      7.54156876e+00 3.23188782e+01 1.34770823e+00 3.37332878e+01
      -4.93806362e+00 3.28091888e+01 -1.24544735e+01 3.03682671e+01
      -1.02996864e+01 2.55993366e+01 -4.92752838e+00 2.30461349e+01
      5.86687386e-01 2.43946609e+01 4.86602449e+00 2.38324146e+01
      1.04261799e+01 2.63502159e+01 4.97336388e+00 2.65644512e+01
      -6.67187497e-02 2.75394287e+01 -4.77425051e+00 2.69474239e+01</_>
    <_>
      -6.94272156e+01 -2.60197678e+01 -6.54496689e+01 -1.16687651e+01
      -6.21786613e+01 4.44785929e+00 -5.84876099e+01 1.84829865e+01
      -5.19916039e+01 3.08798256e+01 -4.24380798e+01 4.22515144e+01
      -3.26184921e+01 4.91332626e+01 -1.88757248e+01 5.56385803e+01
      -2.89507270e+00 5.98686714e+01 1.56012363e+01 5.70349808e+01
      2.88751907e+01 5.08946533e+01 4.20245972e+01 4.17435493e+01
      5.01221542e+01 3.16952343e+01 5.49743500e+01 2.05608978e+01
      5.81705856e+01 6.92536926e+00 6.02205849e+01 -7.67996454e+00
      6.25687943e+01 -2.22679939e+01 4.95474205e+01 -4.64593430e+01
      4.27441750e+01 -5.34653168e+01 3.36162300e+01 -5.66992836e+01
      2.03512859e+01 -5.59671326e+01 9.27472210e+00 -5.15003777e+01
      -1.50868645e+01 -5.11128387e+01 -2.40875340e+01 -5.64452744e+01
      -3.48166885e+01 -5.79655495e+01 -4.48421249e+01 -5.61421585e+01
      -5.32029839e+01 -4.67131767e+01 -4.09978027e+01 -2.91804371e+01
      -3.20321426e+01 -3.34648666e+01 -2.39290104e+01 -3.32939682e+01
      -1.71081390e+01 -2.65917549e+01 -2.45196209e+01 -2.31148987e+01
      -3.29092064e+01 -2.36016808e+01 1.68187389e+01 -2.61250439e+01
      2.28725281e+01 -3.20857887e+01 3.04310646e+01 -3.28442345e+01
      4.06827621e+01 -2.83480492e+01 3.34477730e+01 -2.27551003e+01
      2.41288395e+01 -2.26973095e+01 2.81540084e+00 -2.81401005e+01
      2.94274879e+00 -2.00196667e+01 2.71959376e+00 -1.10162888e+01
      1.96950793e+00 -3.24602175e+00 -1.72274876e+01 1.34806538e+00
      -7.38126850e+00 2.51787496e+00 2.07955146e+00 5.17264700e+00
      8.84229469e+00 2.56143045e+00 1.67343197e+01 1.21276224e+00
      -1.54646301e+01 2.78897572e+01 -9.72670174e+00 2.22154922e+01
      -2.94633436e+00 1.93005104e+01 2.11104918e+00 2.01979942e+01
      7.83476353e+00 1.99260540e+01 1.34073009e+01 2.23552361e+01
      1.77065849e+01 2.59075317e+01 1.35173445e+01 3.07739048e+01
      7.10475254e+00 3.25076675e+01 7.84854174e-01 3.27394829e+01
      -4.58838940e+00 3.21284637e+01 -1.01958561e+01 3.03013153e+01
      -8.70188808e+00 2.52785587e+01 -3.12034535e+00 2.22995663e+01
      3.73236561e+00 2.32956696e+01 7.96451569e+00 2.29427319e+01
      1.14330759e+01 2.52442741e+01 7.43514824e+00 2.68133564e+01
      2.64659810e+00 2.65355148e+01 -3.00757647e+00 2.56089535e+01</_>
    <_>
      -5.99705658e+01 -2.90689831e+01 -5.63460693e+01 -1.14585047e+01
      -5.24457588e+01 4.94602013e+00 -4.85539856e+01 2.07541485e+01
      -4.11661415e+01 3.14033241e+01 -3.26281204e+01 3.93337212e+01
      -2.26275749e+01 4.54395256e+01 -1.32482510e+01 5.03586464e+01
      -2.40381861e+00 5.34531097e+01 1.13681965e+01 5.28957176e+01
      2.26497593e+01 4.72934685e+01 3.51179428e+01 4.10674171e+01
      4.54384537e+01 3.21865959e+01 5.54105797e+01 2.06149387e+01
      6.10898819e+01 3.73113036e+00 6.65186081e+01 -1.04532480e+01
      7.04265137e+01 -2.58049660e+01 5.40827599e+01 -5.06688423e+01
      4.35167503e+01 -5.49667320e+01 3.48200455e+01 -5.54038620e+01
      2.58448944e+01 -5.46375542e+01 1.74965286e+01 -5.23864021e+01
      -1.84435329e+01 -5.17169342e+01 -2.53936768e+01 -5.48813667e+01
      -3.61990395e+01 -5.58783379e+01 -4.57675362e+01 -5.48027039e+01
      -5.40210075e+01 -4.74569168e+01 -4.31846352e+01 -2.87825298e+01
      -3.61259766e+01 -3.58052139e+01 -2.68415031e+01 -3.59781570e+01
      -1.76710949e+01 -2.62621632e+01 -2.63064384e+01 -2.34039745e+01
      -3.55965118e+01 -2.35317669e+01 1.61517296e+01 -2.80904388e+01
      2.34888268e+01 -3.63165550e+01 3.18706131e+01 -3.67735367e+01
      4.18767662e+01 -3.03669930e+01 3.35700340e+01 -2.60184002e+01
      2.42997627e+01 -2.49457493e+01 -6.99173138e-02 -3.25941162e+01
      -1.86829776e-01 -2.25816898e+01 -3.02940995e-01 -1.26644230e+01
      -4.25440639e-01 -2.26106024e+00 -1.71355038e+01 2.49091911e+00
      -9.90688515e+00 4.45447922e+00 -8.45059335e-01 8.47954369e+00
      6.26639462e+00 4.15321541e+00 1.55285540e+01 2.78244686e+00
      -1.93576660e+01 2.80014706e+01 -1.25302219e+01 2.45778275e+01
      -8.11517048e+00 2.03017254e+01 -1.51897335e+00 2.04771404e+01
      5.36983538e+00 2.03488216e+01 1.08270025e+01 2.38419037e+01
      1.90252590e+01 2.96829948e+01 1.37242794e+01 3.45747299e+01
      8.09467697e+00 3.79760590e+01 -2.87155420e-01 3.84304543e+01
      -8.10091591e+00 3.70794830e+01 -1.62656574e+01 3.30377045e+01
      -1.18755379e+01 2.75612545e+01 -5.90052462e+00 2.65525589e+01
      -8.02905858e-01 2.67558727e+01 5.16955042e+00 2.57472267e+01
      9.99690247e+00 2.74546738e+01 5.53162336e+00 2.90343742e+01
      -1.59361348e-01 2.91403828e+01 -5.84474421e+00 2.95471268e+01</_>
    <_>
      -6.06272964e+01 -2.63804283e+01 -5.66263847e+01 -1.32511930e+01
      -5.32512321e+01 1.97844279e+00 -4.96024895e+01 1.53686504e+01
      -4.13881493e+01 2.75577965e+01 -3.11597309e+01 3.25260391e+01
      -2.17598324e+01 3.67443352e+01 -1.21445589e+01 4.16213760e+01
      -6.40937537e-02 4.46716042e+01 1.83224545e+01 4.11393051e+01
      3.29389458e+01 3.76729546e+01 4.66483383e+01 3.18782234e+01
      5.71930809e+01 1.99724102e+01 6.10262299e+01 8.94845963e+00
      6.53813324e+01 -1.37115490e+00 6.91562576e+01 -9.89693737e+00
      7.17012253e+01 -2.10874310e+01 5.81265793e+01 -4.31861916e+01
      4.96134148e+01 -4.91527252e+01 3.98943253e+01 -5.12250252e+01
      2.98560467e+01 -5.11513214e+01 2.07248631e+01 -4.87492294e+01
      -1.92128830e+01 -4.77956810e+01 -3.01912403e+01 -5.19354095e+01
      -4.14431953e+01 -5.42357025e+01 -5.21984329e+01 -5.14484558e+01
      -5.80941277e+01 -4.76250572e+01 -4.68849182e+01 -3.02901421e+01
      -3.97173386e+01 -3.42377167e+01 -3.01680164e+01 -3.31307259e+01
      -2.07477589e+01 -2.48358002e+01 -3.03679066e+01 -2.12530174e+01
      -4.10067215e+01 -2.34621143e+01 1.93471470e+01 -2.26324329e+01
      2.69377365e+01 -3.15307465e+01 3.70216103e+01 -3.19110184e+01
      4.58413429e+01 -2.58988857e+01 3.74348602e+01 -1.99421120e+01
      2.86684704e+01 -1.99925900e+01 -6.03670418e-01 -2.82602444e+01
      -1.20725107e+00 -1.87457218e+01 -1.80589187e+00 -9.32760906e+00
      -2.43307471e+00 5.56285679e-01 -1.86746063e+01 3.36103582e+00
      -1.18970566e+01 6.24923420e+00 -3.10551667e+00 1.11447592e+01
      5.71431494e+00 7.92864323e+00 1.50608730e+01 6.18528843e+00
      -1.89375954e+01 2.61967392e+01 -1.30089216e+01 2.42583714e+01
      -9.39602280e+00 2.10355015e+01 -3.09481716e+00 2.29127865e+01
      2.29929304e+00 2.24616776e+01 7.66816473e+00 2.63937664e+01
      1.36045799e+01 3.07236252e+01 9.37854004e+00 3.38552933e+01
      4.19980478e+00 3.49651413e+01 -1.76184952e+00 3.50184784e+01
      -8.50642300e+00 3.40153122e+01 -1.41818657e+01 3.00376225e+01
      -1.28061666e+01 2.71087132e+01 -8.89931488e+00 2.61230392e+01
      -4.09984827e+00 2.67836246e+01 2.01308203e+00 2.64927063e+01
      6.69023275e+00 2.87551422e+01 2.64658570e+00 3.06605301e+01
      -4.28038025e+00 3.08836346e+01 -9.75306988e+00 2.97562962e+01</_>
    <_>
      -6.57020340e+01 -3.12693310e+01 -6.56210556e+01 -1.54322090e+01
      -6.47397232e+01 -1.33535862e+00 -6.14976692e+01 1.87789860e+01
      -5.23647461e+01 3.09728870e+01 -4.03987160e+01 4.03062782e+01
      -2.61492119e+01 4.90877876e+01 -7.79107571e+00 5.57110672e+01
      4.57103062e+00 5.56160774e+01 2.03148365e+01 5.21257553e+01
      3.26181641e+01 4.60483780e+01 4.25375671e+01 3.98355865e+01
      5.25472450e+01 3.20335045e+01 5.90713043e+01 2.24390144e+01
      6.53786087e+01 9.64337826e+00 6.63523178e+01 -7.91956902e+00
      6.88411789e+01 -2.32440281e+01 4.73674698e+01 -4.51912155e+01
      4.16333427e+01 -4.95029793e+01 3.21427689e+01 -5.08392906e+01
      2.13022366e+01 -4.94620628e+01 1.27327900e+01 -4.59628143e+01
      -1.67141418e+01 -4.68383255e+01 -2.52295189e+01 -5.13080750e+01
      -3.55598793e+01 -5.18948822e+01 -4.44363708e+01 -5.00074844e+01
      -5.14616699e+01 -4.56233101e+01 -4.11943169e+01 -2.98931408e+01
      -3.46114769e+01 -3.35052452e+01 -2.54730778e+01 -3.29861450e+01
      -1.81722374e+01 -2.81867809e+01 -2.62766533e+01 -2.58569221e+01
      -3.33833046e+01 -2.70578175e+01 1.61102619e+01 -2.82324009e+01
      2.47248478e+01 -3.25262985e+01 3.31137390e+01 -3.28469734e+01
      4.04145813e+01 -2.80476170e+01 3.39445915e+01 -2.64221210e+01
      2.56709137e+01 -2.50425777e+01 8.40418458e-01 -3.30858345e+01
      6.96068406e-01 -2.35275440e+01 4.16300684e-01 -1.15853300e+01
      -8.02314356e-02 -2.84425640e+00 -1.86278572e+01 8.85398448e-01
      -9.99963093e+00 3.36853766e+00 -1.34302765e-01 5.12474346e+00
      7.10776329e+00 3.94171095e+00 1.67563286e+01 2.49677467e+00
      -1.91873932e+01 2.47698288e+01 -1.72775631e+01 2.00592117e+01
      -9.35826874e+00 2.01463223e+01 -5.72058082e-01 1.98482094e+01
      7.41951132e+00 1.95049610e+01 1.56955547e+01 2.11708889e+01
      1.90683212e+01 2.49499073e+01 1.42689619e+01 3.22507477e+01
      8.48076534e+00 3.59079857e+01 -6.57631099e-01 3.53888855e+01
      -6.96963596e+00 3.42331276e+01 -1.34532652e+01 2.90815868e+01
      -1.31598597e+01 2.39164104e+01 -8.30172348e+00 2.25979595e+01
      1.30170119e+00 2.19476662e+01 8.82824039e+00 2.27738113e+01
      1.34832506e+01 2.50312538e+01 6.45794916e+00 2.94154263e+01
      -1.06859016e+00 2.85892830e+01 -6.58595276e+00 2.74786644e+01</_>
    <_>
      -6.40539703e+01 -2.34146690e+01 -6.22535896e+01 -6.36610222e+00
      -6.04027748e+01 5.91798258e+00 -5.75543747e+01 1.93832169e+01
      -5.10721931e+01 2.91319828e+01 -4.49898109e+01 3.92156906e+01
      -3.27195930e+01 4.58084564e+01 -1.86941185e+01 5.32878494e+01
      -5.01963973e-01 5.93015938e+01 1.66431389e+01 5.64078636e+01
      2.94789181e+01 5.24020004e+01 4.23010445e+01 4.43576584e+01
      5.36670265e+01 3.21386414e+01 6.00530777e+01 1.80166302e+01
      6.48769379e+01 8.21284831e-01 6.64897079e+01 -1.33519316e+01
      6.78404312e+01 -2.86501656e+01 4.48386726e+01 -5.08762970e+01
      3.73782539e+01 -5.37387581e+01 3.03629627e+01 -5.32562752e+01
      2.35132217e+01 -5.05554199e+01 1.69991684e+01 -4.74635086e+01
      -1.57703495e+01 -4.63195267e+01 -2.22476101e+01 -5.20305862e+01
      -2.98606834e+01 -5.30641785e+01 -3.84007988e+01 -5.19846764e+01
      -4.56495705e+01 -4.89576378e+01 -4.41712341e+01 -2.82616310e+01
      -3.38159218e+01 -3.32269630e+01 -2.57397175e+01 -3.32455482e+01
      -1.86005669e+01 -2.67443943e+01 -2.65119972e+01 -2.44986954e+01
      -3.52588463e+01 -2.52709751e+01 1.87807865e+01 -2.60090771e+01
      2.50839443e+01 -3.49992409e+01 3.39185677e+01 -3.53210869e+01
      4.27019997e+01 -3.08697014e+01 3.58293495e+01 -2.78094559e+01
      2.70961533e+01 -2.45432434e+01 1.39047921e+00 -3.15200939e+01
      9.73696411e-01 -2.21071758e+01 5.72592735e-01 -1.27722025e+01
      1.40113473e-01 -2.98163128e+00 -1.62811260e+01 9.98560667e-01
      -8.42964363e+00 3.52531648e+00 -3.18408519e-01 7.50303745e+00
      9.21592999e+00 3.24975967e+00 1.64006157e+01 9.48705554e-01
      -1.57169151e+01 2.78548946e+01 -1.11957607e+01 2.23744545e+01
      -7.06563807e+00 1.72297173e+01 -1.27269650e+00 1.81114216e+01
      5.35153770e+00 1.79646416e+01 1.00331612e+01 2.31469307e+01
      1.38914728e+01 2.93672161e+01 9.19678116e+00 3.26197624e+01
      4.66272259e+00 3.40529594e+01 -1.59493184e+00 3.42409248e+01
      -7.02927637e+00 3.33908844e+01 -1.04748707e+01 3.08829060e+01
      -9.72137737e+00 2.65419197e+01 -5.00300407e+00 2.29212303e+01
      6.39868304e-02 2.37388363e+01 5.59563684e+00 2.34867802e+01
      8.65019989e+00 2.63304634e+01 4.51515722e+00 2.74374790e+01
      -6.80777669e-01 2.80805988e+01 -5.45324421e+00 2.80206394e+01</_>
    <_>
      -6.53872223e+01 -2.69603252e+01 -6.61215820e+01 -1.43819771e+01
      -6.50537872e+01 1.69409084e+00 -6.10084953e+01 1.97988396e+01
      -5.32097740e+01 3.41865463e+01 -4.40193596e+01 4.55123901e+01
      -2.92457733e+01 5.40202713e+01 -1.55903025e+01 5.88001747e+01
      1.19769287e+00 6.20558205e+01 1.46178055e+01 5.90030365e+01
      2.44494190e+01 5.12340393e+01 3.68954811e+01 4.57718887e+01
      4.80751228e+01 3.52625694e+01 5.65399132e+01 2.08062801e+01
      5.89835281e+01 5.20704651e+00 6.09339485e+01 -9.15580082e+00
      6.08835716e+01 -2.31419106e+01 4.26604500e+01 -4.93505058e+01
      3.79420891e+01 -5.29167786e+01 2.96871777e+01 -5.43630600e+01
      2.43618355e+01 -5.34597168e+01 1.92876778e+01 -4.95988960e+01
      -1.75215206e+01 -4.90694885e+01 -2.47930603e+01 -5.29824791e+01
      -3.20918770e+01 -5.42989311e+01 -4.04174652e+01 -5.28292732e+01
      -4.59002037e+01 -4.83711624e+01 -3.84754829e+01 -2.88337631e+01
      -3.22674599e+01 -3.38418236e+01 -2.40286236e+01 -3.46726570e+01
      -1.75099525e+01 -2.76110687e+01 -2.55616608e+01 -2.57789135e+01
      -3.22650299e+01 -2.66892033e+01 1.72960300e+01 -2.77618961e+01
      2.30821056e+01 -3.44537582e+01 3.00615330e+01 -3.31806755e+01
      3.82457695e+01 -2.88184433e+01 3.13849869e+01 -2.61739712e+01
      2.39400425e+01 -2.63825531e+01 1.23394454e+00 -3.23546295e+01
      1.16141486e+00 -2.26856861e+01 1.09068835e+00 -1.31097565e+01
      1.01439548e+00 -3.06180763e+00 -1.44911280e+01 4.32119071e-01
      -5.84399986e+00 -9.93871808e-01 9.34606016e-01 4.15337896e+00
      8.09901810e+00 -7.26969719e-01 1.50623436e+01 -1.73101234e+00
      -1.42581186e+01 2.74463902e+01 -9.47365475e+00 2.09438210e+01
      -2.88919258e+00 1.79386978e+01 3.20507002e+00 1.61638660e+01
      8.45729446e+00 1.81782990e+01 1.30889044e+01 2.23833961e+01
      1.61808052e+01 2.83290405e+01 1.18752794e+01 3.13205051e+01
      7.20486069e+00 3.45877190e+01 2.64849043e+00 3.46195869e+01
      -2.14054179e+00 3.39692574e+01 -9.22063923e+00 3.10581722e+01
      -8.39680767e+00 2.49914951e+01 -2.32104325e+00 2.09413891e+01
      3.59758878e+00 2.04439087e+01 8.16974831e+00 2.26912975e+01
      1.20760765e+01 2.74463310e+01 7.85490274e+00 2.98008251e+01
      1.29773867e+00 3.02094212e+01 -5.27550316e+00 2.83408947e+01</_>
    <_>
      -6.67899933e+01 -2.76116486e+01 -6.58016891e+01 -1.30425243e+01
      -6.24460754e+01 1.07821703e+00 -5.69046898e+01 1.84995461e+01
      -5.01038818e+01 3.38266945e+01 -3.91988716e+01 4.21723366e+01
      -2.55777016e+01 5.03884926e+01 -1.40656986e+01 5.70113907e+01
      3.29142749e-01 5.97641068e+01 1.51252241e+01 5.63781815e+01
      2.84187851e+01 4.96686249e+01 3.99819756e+01 4.23524590e+01
      5.10821648e+01 3.23426704e+01 5.83650589e+01 2.04589062e+01
      6.31057510e+01 4.95601463e+00 6.54486618e+01 -1.11159725e+01
      6.57960358e+01 -2.60795784e+01 4.64132195e+01 -4.90004349e+01
      3.91588058e+01 -5.17314072e+01 3.23142242e+01 -5.27852631e+01
      2.35425911e+01 -5.13728180e+01 1.92102451e+01 -4.94752808e+01
      -1.69995480e+01 -4.61549072e+01 -2.46563778e+01 -5.02288170e+01
      -3.25327568e+01 -5.15709038e+01 -4.06214523e+01 -5.01891060e+01
      -4.76246567e+01 -4.71528816e+01 -4.30394630e+01 -2.83352642e+01
      -3.34335709e+01 -3.38604965e+01 -2.63313599e+01 -3.45213470e+01
      -1.81655617e+01 -2.67294617e+01 -2.62695751e+01 -2.56891193e+01
      -3.41156502e+01 -2.63558884e+01 1.84919586e+01 -2.76977043e+01
      2.60186462e+01 -3.41484795e+01 3.41832695e+01 -3.38381653e+01
      4.05350418e+01 -2.86868458e+01 3.41765099e+01 -2.63638477e+01
      2.70896206e+01 -2.53615379e+01 6.89943731e-01 -3.06396809e+01
      7.74798870e-01 -2.11242085e+01 1.38345674e-01 -1.26028070e+01
      1.31584704e-01 -5.12849283e+00 -1.76998768e+01 -1.27182591e+00
      -8.48022556e+00 -3.24560583e-01 1.47741333e-01 2.68693566e+00
      6.82482576e+00 7.50127435e-03 1.43447533e+01 1.03103828e+00
      -1.67174988e+01 2.82455711e+01 -1.10351171e+01 1.84789066e+01
      -6.44482851e+00 1.48742666e+01 5.83120920e-02 1.59434423e+01
      7.82845402e+00 1.49180832e+01 1.14787197e+01 2.05251579e+01
      1.65788383e+01 2.81124554e+01 1.21178322e+01 3.47677956e+01
      7.51994753e+00 3.83727722e+01 -1.61583674e+00 3.91248817e+01
      -8.47576809e+00 3.77295799e+01 -1.34386396e+01 3.32002449e+01
      -1.13680248e+01 2.63100014e+01 -5.81430197e+00 2.13011494e+01
      3.01766515e-01 2.13688450e+01 7.13105297e+00 2.20812397e+01
      1.11077824e+01 2.73391228e+01 6.04655552e+00 2.82429142e+01
      -5.41903824e-02 2.85166740e+01 -6.18521690e+00 2.81151123e+01</_>
    <_>
      -6.17259903e+01 -2.49955921e+01 -6.06646042e+01 -1.22849827e+01
      -5.77631187e+01 4.50071144e+00 -5.59939690e+01 1.78787403e+01
      -5.18182602e+01 3.11860943e+01 -4.39008331e+01 4.26631584e+01
      -3.06243553e+01 4.91551437e+01 -1.64073162e+01 5.25227203e+01
      -1.07041061e-01 5.65277328e+01 1.36245880e+01 5.50818520e+01
      2.76498032e+01 5.19173279e+01 4.12505150e+01 4.60125427e+01
      5.33946114e+01 3.77314491e+01 6.13129196e+01 2.57998714e+01
      6.52769012e+01 8.45808411e+00 6.75828171e+01 -6.76004171e+00
      6.87769089e+01 -2.50423431e+01 4.69966545e+01 -5.12627754e+01
      3.68445740e+01 -5.68142433e+01 2.71880569e+01 -5.75629845e+01
      1.99781399e+01 -5.66631165e+01 1.32233744e+01 -5.23357010e+01
      -1.70412712e+01 -5.11029968e+01 -2.57172222e+01 -5.32568932e+01
      -3.46659622e+01 -5.33382339e+01 -4.28567772e+01 -5.06891098e+01
      -4.82158623e+01 -4.57040558e+01 -3.87318230e+01 -2.73911953e+01
      -2.96007557e+01 -3.31751785e+01 -2.23608913e+01 -3.26995621e+01
      -1.49487858e+01 -2.67131329e+01 -2.24318523e+01 -2.33965950e+01
      -2.96616211e+01 -2.35284119e+01 1.59832687e+01 -2.86536121e+01
      2.33243465e+01 -3.64495773e+01 3.15959492e+01 -3.63483582e+01
      4.10506134e+01 -3.11100769e+01 3.32142067e+01 -2.63338108e+01
      2.45347939e+01 -2.61206894e+01 8.25709820e-01 -2.88967438e+01
      4.00567710e-01 -1.99379044e+01 2.99323887e-01 -1.16663160e+01
      1.98111400e-01 -3.39474463e+00 -1.61428432e+01 2.93459225e+00
      -6.54689217e+00 1.62056410e+00 1.36938706e-01 6.24160004e+00
      6.17382812e+00 9.02989984e-01 1.44757128e+01 2.03559065e+00
      -1.57390375e+01 2.84063129e+01 -1.20787306e+01 2.41593227e+01
      -5.67787170e+00 1.94982109e+01 -5.00452578e-01 1.96902714e+01
      4.62619495e+00 1.85074863e+01 9.53015900e+00 2.14603176e+01
      1.54860201e+01 2.47263546e+01 1.14920263e+01 2.93272209e+01
      4.68645859e+00 3.22797699e+01 -1.10756052e+00 3.41703529e+01
      -8.05445099e+00 3.23097649e+01 -1.15630426e+01 3.00041466e+01
      -9.93492413e+00 2.68595257e+01 -6.20395660e+00 2.50191116e+01
      2.98177183e-01 2.34518280e+01 6.85044909e+00 2.39476318e+01
      1.03186941e+01 2.48780766e+01 5.91023016e+00 2.70824757e+01
      5.56451418e-02 2.69102802e+01 -5.77911615e+00 2.77697849e+01</_>
    <_>
      -6.45053177e+01 -2.33251648e+01 -6.25007515e+01 -8.65144920e+00
      -5.95332375e+01 4.06554556e+00 -5.68773689e+01 1.87373619e+01
      -5.09715843e+01 3.11119137e+01 -4.34478531e+01 3.98995781e+01
      -3.29980888e+01 4.41113014e+01 -1.96025505e+01 5.05941277e+01
      -1.97456884e+00 5.38082161e+01 1.46558676e+01 5.27833405e+01
      2.99771309e+01 4.94742889e+01 4.62621918e+01 4.16033173e+01
      5.70064659e+01 3.21116753e+01 6.57660446e+01 1.77326031e+01
      6.86620026e+01 2.71912169e+00 7.15589218e+01 -1.19686956e+01
      7.31542435e+01 -2.33962250e+01 4.92798004e+01 -4.42026939e+01
      4.24158478e+01 -5.00530319e+01 3.58767281e+01 -5.32990646e+01
      2.67529678e+01 -5.22874680e+01 1.89290791e+01 -4.93340340e+01
      -1.92285671e+01 -4.56335220e+01 -2.77179470e+01 -5.05022163e+01
      -3.62034645e+01 -5.11290703e+01 -4.23954201e+01 -4.98086090e+01
      -4.92357750e+01 -4.45700836e+01 -4.72227325e+01 -2.69571743e+01
      -3.87578049e+01 -3.05721054e+01 -2.92972012e+01 -3.05993690e+01
      -2.04719448e+01 -2.50803204e+01 -2.82948723e+01 -2.17929077e+01
      -3.80829926e+01 -2.24160061e+01 1.66939106e+01 -2.52375298e+01
      2.61572475e+01 -3.01078777e+01 3.56159439e+01 -3.07864456e+01
      4.57428627e+01 -2.55968132e+01 3.63009911e+01 -2.19790688e+01
      2.65156937e+01 -2.16252022e+01 -6.17488801e-01 -2.87030525e+01
      -8.42809737e-01 -1.99598408e+01 -1.07672811e+00 -1.13084507e+01
      -1.31775188e+00 -2.23119926e+00 -1.94197807e+01 1.01071453e+00
      -9.30602741e+00 1.63287425e+00 -1.57364047e+00 7.49740124e+00
      6.34934425e+00 1.26209021e+00 1.67924309e+01 2.55046278e-01
      -1.83789043e+01 2.31939182e+01 -1.15329418e+01 1.99092960e+01
      -6.32452106e+00 1.63037510e+01 -4.50644970e-01 1.75977936e+01
      5.74222517e+00 1.65946426e+01 1.16319427e+01 2.04938679e+01
      1.62023392e+01 2.43968716e+01 1.16545153e+01 2.83261757e+01
      6.10925531e+00 3.09474106e+01 -4.07401443e-01 3.26028023e+01
      -6.60501337e+00 3.19693584e+01 -1.37992096e+01 2.74225845e+01
      -1.21738958e+01 2.35017014e+01 -6.95888090e+00 2.21840572e+01
      2.18512237e-01 2.37916298e+01 7.07106638e+00 2.27949333e+01
      1.09835691e+01 2.44119091e+01 7.40421295e+00 2.53992004e+01
      -1.00581698e-01 2.60721340e+01 -7.27701092e+00 2.47902031e+01</_>
    <_>
      -6.49877167e+01 -3.03284302e+01 -6.32685127e+01 -1.24466295e+01
      -6.24236107e+01 2.52474284e+00 -5.74596329e+01 1.95912151e+01
      -4.89624214e+01 3.31417580e+01 -3.91389503e+01 4.31158714e+01
      -2.71347008e+01 5.14074478e+01 -1.52179461e+01 5.62369843e+01
      3.50813091e-01 5.79080772e+01 1.44487085e+01 5.41528740e+01
      2.63788738e+01 4.89862823e+01 3.82509041e+01 4.41541939e+01
      4.89875717e+01 3.39532509e+01 5.79052811e+01 2.03339710e+01
      6.19631805e+01 6.90386438e+00 6.48711166e+01 -9.82831669e+00
      6.60913010e+01 -2.47853756e+01 4.59955101e+01 -4.99977798e+01
      3.73808403e+01 -5.59772835e+01 3.00040474e+01 -5.51900177e+01
      2.23374519e+01 -5.27301445e+01 1.53826723e+01 -4.84227028e+01
      -1.76015663e+01 -5.10529099e+01 -2.73505535e+01 -5.44710579e+01
      -3.62261086e+01 -5.49789124e+01 -4.40098228e+01 -5.18502007e+01
      -4.94794579e+01 -4.41815720e+01 -3.89003334e+01 -3.16553478e+01
      -3.10583344e+01 -3.51193848e+01 -2.29100494e+01 -3.43924675e+01
      -1.72063847e+01 -2.75404949e+01 -2.37532349e+01 -2.55752010e+01
      -3.23378334e+01 -2.77572002e+01 1.84117889e+01 -2.61763802e+01
      2.49438477e+01 -3.40049591e+01 3.18688984e+01 -3.41806793e+01
      4.06581078e+01 -2.92054844e+01 3.30343437e+01 -2.50143166e+01
      2.60503254e+01 -2.45042591e+01 2.04229355e+00 -3.31590118e+01
      1.97074819e+00 -2.28283978e+01 7.84686625e-01 -1.32824497e+01
      5.20723999e-01 -3.15326333e+00 -1.52240915e+01 7.29225099e-01
      -7.13393879e+00 1.79064083e+00 -6.87851727e-01 6.35861206e+00
      7.21144009e+00 2.55992389e+00 1.58687611e+01 2.34066224e+00
      -1.74764557e+01 2.75738010e+01 -1.14097233e+01 2.24228401e+01
      -3.90222192e+00 1.89006557e+01 1.29208362e+00 1.87696037e+01
      6.86471319e+00 2.04272785e+01 1.14192705e+01 2.39773235e+01
      1.57994080e+01 2.85308399e+01 1.20313034e+01 3.23574448e+01
      6.82240295e+00 3.45552635e+01 1.73714772e-01 3.51236115e+01
      -5.57331228e+00 3.44694138e+01 -1.19757137e+01 3.16328812e+01
      -1.00416775e+01 2.64528751e+01 -4.71651411e+00 2.35860691e+01
      -1.79666877e-01 2.37284241e+01 6.28309679e+00 2.37738819e+01
      1.15067844e+01 2.74393559e+01 6.25420094e+00 2.79057407e+01
      7.25257158e-01 2.79794979e+01 -5.13803482e+00 2.79942875e+01</_>
    <_>
      -6.44603424e+01 -3.04439850e+01 -6.26660042e+01 -1.30560837e+01
      -6.15652618e+01 1.66823459e+00 -5.89934540e+01 1.63232346e+01
      -5.37270966e+01 2.88793087e+01 -4.10525436e+01 3.70809479e+01
      -2.87205639e+01 4.39549294e+01 -1.54042492e+01 5.01646423e+01
      -4.42036599e-01 5.30362511e+01 1.71312828e+01 5.15730934e+01
      3.10381508e+01 4.68203163e+01 4.55942955e+01 4.10732346e+01
      5.64781036e+01 3.23608589e+01 6.40297699e+01 2.16865978e+01
      6.75413666e+01 3.40220022e+00 6.87737350e+01 -9.54390717e+00
      6.86657715e+01 -2.38184528e+01 4.82438164e+01 -4.72262497e+01
      3.95816078e+01 -5.14757729e+01 3.09478359e+01 -5.30649910e+01
      2.36526375e+01 -5.13553047e+01 1.57333755e+01 -4.53175430e+01
      -2.07761459e+01 -4.67042503e+01 -2.81114616e+01 -5.02986794e+01
      -3.94031639e+01 -5.15435371e+01 -4.76850853e+01 -4.94855156e+01
      -5.42767639e+01 -4.37986755e+01 -4.41989708e+01 -2.82692642e+01
      -3.42751884e+01 -3.20025406e+01 -2.53130665e+01 -3.20703239e+01
      -1.92961445e+01 -2.58054066e+01 -2.59254208e+01 -2.50901375e+01
      -3.45600319e+01 -2.56899662e+01 1.85468330e+01 -2.50939083e+01
      2.71286888e+01 -3.14692478e+01 3.44305954e+01 -3.11919003e+01
      4.58509064e+01 -2.61318226e+01 3.62755127e+01 -2.47042084e+01
      2.71889248e+01 -2.35047646e+01 1.91140985e+00 -3.04387932e+01
      1.34290552e+00 -1.76639862e+01 7.40548491e-01 -9.36193085e+00
      -1.76030710e-01 2.64445245e-01 -2.04172497e+01 7.50102937e-01
      -1.17382698e+01 8.31683159e+00 -7.60756969e-01 1.08943405e+01
      8.84557438e+00 9.15886021e+00 1.84351158e+01 4.10616446e+00
      -2.32294636e+01 2.46661797e+01 -1.32998104e+01 2.06086178e+01
      -5.33533955e+00 2.05483818e+01 1.29896700e+00 2.04982071e+01
      9.26343918e+00 2.04379711e+01 1.55835619e+01 2.17204380e+01
      2.19003563e+01 2.36597404e+01 1.33059235e+01 2.83723373e+01
      7.34929895e+00 3.00802135e+01 3.84126306e-01 3.14548359e+01
      -8.57470226e+00 3.08574562e+01 -1.68943157e+01 2.79356098e+01
      -1.42698574e+01 2.42658577e+01 -8.63493824e+00 2.28929749e+01
      -1.33303380e+00 2.31703243e+01 6.62892294e+00 2.27775326e+01
      1.42734299e+01 2.43825417e+01 6.97906923e+00 2.51028442e+01
      -6.09102309e-01 2.54512329e+01 -8.94989872e+00 2.52233162e+01</_>
    <_>
      -7.22385101e+01 -2.45408688e+01 -7.21160965e+01 -1.51417542e+01
      -7.10165939e+01 -2.38173389e+00 -6.50493698e+01 1.77400932e+01
      -5.64839516e+01 3.26982689e+01 -4.38339729e+01 4.41631889e+01
      -2.97116013e+01 5.06662674e+01 -1.57259150e+01 5.64066620e+01
      1.16171038e+00 5.65167046e+01 1.66870193e+01 5.33473358e+01
      3.13576183e+01 4.75697594e+01 4.46069717e+01 4.04850578e+01
      5.36940041e+01 2.98355103e+01 5.86044693e+01 1.56112099e+01
      6.02234421e+01 2.75138879e+00 6.16406250e+01 -1.12343121e+01
      6.23398132e+01 -2.70655060e+01 5.10785065e+01 -4.38896103e+01
      4.29435272e+01 -4.98912430e+01 3.41704292e+01 -5.06681786e+01
      2.45878353e+01 -4.93383751e+01 1.86677265e+01 -4.51413345e+01
      -1.48137531e+01 -4.58138657e+01 -2.37582378e+01 -4.97087860e+01
      -3.32267456e+01 -4.99737396e+01 -4.41880798e+01 -4.76222076e+01
      -5.15294228e+01 -4.04091644e+01 -4.19852982e+01 -2.87750301e+01
      -3.25046883e+01 -3.28354187e+01 -2.22734890e+01 -3.27070961e+01
      -1.46504459e+01 -2.74009094e+01 -2.11618690e+01 -2.42724209e+01
      -3.27349586e+01 -2.53347912e+01 1.72037334e+01 -2.48624287e+01
      2.38518124e+01 -3.15514011e+01 3.27411079e+01 -3.23571320e+01
      4.11268196e+01 -2.71876087e+01 3.41034355e+01 -2.47545547e+01
      2.45881290e+01 -2.30494728e+01 2.59201312e+00 -2.97034683e+01
      2.12313008e+00 -2.13729095e+01 2.31279421e+00 -1.15985126e+01
      1.63997626e+00 -4.40591764e+00 -1.51302814e+01 8.10758889e-01
      -6.55598307e+00 3.19766927e+00 2.19281888e+00 5.30336094e+00
      1.02873373e+01 2.99077392e+00 1.85706654e+01 4.06911731e-01
      -2.32147331e+01 2.12389584e+01 -1.19354362e+01 1.84306087e+01
      -4.63872290e+00 1.75229263e+01 3.16777134e+00 1.72985630e+01
      1.02115984e+01 1.72108631e+01 1.74388885e+01 2.02389526e+01
      2.20927162e+01 2.21538773e+01 1.64784870e+01 3.02194347e+01
      1.06950397e+01 3.51791191e+01 4.17415649e-02 3.70881195e+01
      -8.69664860e+00 3.43433228e+01 -1.74576416e+01 2.92410431e+01
      -1.76494617e+01 2.37776985e+01 -9.04557896e+00 2.14487991e+01
      -1.15757132e+00 2.16096344e+01 8.03762436e+00 2.03492489e+01
      1.41027546e+01 2.35856266e+01 8.18264008e+00 2.77826271e+01
      -1.76312256e+00 2.91775074e+01 -9.29846764e+00 2.65919552e+01</_>
    <_>
      -6.52949753e+01 -2.81697006e+01 -6.27019768e+01 -1.11627703e+01
      -6.08747025e+01 4.51512194e+00 -5.72687531e+01 1.82395382e+01
      -4.94094734e+01 3.00056820e+01 -3.42107925e+01 3.98680000e+01
      -2.35194340e+01 4.61008530e+01 -1.02326508e+01 5.38778839e+01
      2.72278547e+00 5.66716461e+01 1.83401432e+01 5.02005501e+01
      2.70940399e+01 4.16724129e+01 3.78800468e+01 3.67832451e+01
      4.69047737e+01 2.85945625e+01 5.21474571e+01 1.84027481e+01
      5.51246605e+01 3.92069721e+00 5.70283966e+01 -1.19226713e+01
      5.93226166e+01 -2.58682709e+01 5.29143867e+01 -4.46415138e+01
      4.51064453e+01 -5.25912056e+01 3.70751610e+01 -5.38489761e+01
      3.03086777e+01 -5.34910889e+01 2.30854740e+01 -5.17291412e+01
      -1.80819378e+01 -5.20014801e+01 -2.89366570e+01 -5.65211449e+01
      -3.76791306e+01 -5.66934433e+01 -4.83487663e+01 -5.30084534e+01
      -5.44000282e+01 -4.86221352e+01 -4.38827591e+01 -2.93882046e+01
      -3.43791161e+01 -3.55504723e+01 -2.56319942e+01 -3.53776207e+01
      -1.70159550e+01 -2.44082050e+01 -2.61510239e+01 -2.37494621e+01
      -3.50827026e+01 -2.48226910e+01 1.79209309e+01 -2.57627125e+01
      2.52934742e+01 -3.36400185e+01 3.62287483e+01 -3.46631927e+01
      4.38221169e+01 -2.73247662e+01 3.78296280e+01 -2.36632328e+01
      2.83366394e+01 -2.24620152e+01 8.14272106e-01 -3.06700611e+01
      6.28662050e-01 -2.13059406e+01 4.49593633e-01 -1.20354729e+01
      2.58156568e-01 -2.30850267e+00 -1.91613274e+01 7.54769266e-01
      -9.78414154e+00 5.38964510e+00 8.86026621e-01 9.00892544e+00
      7.56676483e+00 6.88904810e+00 1.74100266e+01 2.81202626e+00
      -1.82371407e+01 2.78777504e+01 -1.43140421e+01 2.09268894e+01
      -8.15828514e+00 1.85786743e+01 -3.92611623e-01 1.82747574e+01
      7.46046734e+00 1.98369045e+01 1.31503267e+01 2.39200935e+01
      1.70984097e+01 2.96495705e+01 1.40881262e+01 3.67054024e+01
      8.19742870e+00 3.94017982e+01 -4.79933739e-01 3.95914421e+01
      -9.47508335e+00 3.72782707e+01 -1.42521334e+01 3.33000336e+01
      -1.07148619e+01 2.44519691e+01 -5.77799034e+00 2.19525814e+01
      1.49706531e+00 2.31383743e+01 7.25071001e+00 2.41366291e+01
      1.23349504e+01 2.81517754e+01 7.23796511e+00 2.93901730e+01
      1.18359335e-01 2.94648266e+01 -7.08343267e+00 2.76693153e+01</_>
    <_>
      -5.98455734e+01 -2.71317635e+01 -5.66049690e+01 -8.54974937e+00
      -5.39394760e+01 7.20531082e+00 -5.02213821e+01 2.03047504e+01
      -4.20027237e+01 3.01350193e+01 -3.34508400e+01 3.64175301e+01
      -2.25115013e+01 4.44061050e+01 -1.32731848e+01 5.12687492e+01
      -6.83840752e-01 5.62341270e+01 1.18413239e+01 5.32073860e+01
      2.09417820e+01 4.76104164e+01 3.39449081e+01 3.91064987e+01
      4.87382355e+01 2.91687336e+01 5.72784424e+01 1.72196884e+01
      6.13562317e+01 1.83094072e+00 6.40177765e+01 -1.15162535e+01
      6.61937027e+01 -2.67372627e+01 5.48822670e+01 -4.62091942e+01
      4.60685806e+01 -5.18279152e+01 3.85778847e+01 -5.34042473e+01
      3.08756084e+01 -5.36859627e+01 2.28233166e+01 -5.07333755e+01
      -2.43047447e+01 -5.20172806e+01 -3.02675209e+01 -5.43690681e+01
      -3.90297165e+01 -5.58332634e+01 -4.83539734e+01 -5.27739067e+01
      -5.28648376e+01 -4.94983749e+01 -4.36890144e+01 -2.88770618e+01
      -3.84822350e+01 -3.50970726e+01 -2.71385918e+01 -3.70531540e+01
      -1.84623604e+01 -2.56669407e+01 -2.63369579e+01 -2.43317413e+01
      -3.49594383e+01 -2.42119579e+01 1.84913654e+01 -2.73298340e+01
      2.44510822e+01 -3.58478165e+01 3.49247322e+01 -3.67715607e+01
      4.50506210e+01 -2.71095047e+01 3.64462242e+01 -2.31526051e+01
      2.81135788e+01 -2.33787251e+01 -1.79979134e+00 -3.25715523e+01
      -2.46589851e+00 -2.19631119e+01 -2.25662136e+00 -1.23874760e+01
      -2.23042393e+00 -1.19397593e+00 -1.82472858e+01 2.13530159e+00
      -9.13918877e+00 3.88933039e+00 -1.76473999e+00 7.71834040e+00
      5.02192545e+00 4.88279152e+00 1.50041027e+01 2.08031774e+00
      -1.90138664e+01 2.97037792e+01 -1.27969217e+01 2.40408020e+01
      -7.07602024e+00 2.00178566e+01 -2.99312860e-01 2.07015495e+01
      5.38358927e+00 1.98799915e+01 1.24957638e+01 2.43674049e+01
      1.73272343e+01 2.84206963e+01 1.22420845e+01 3.23875732e+01
      7.39069605e+00 3.53727798e+01 -4.61258650e-01 3.70263214e+01
      -7.89635086e+00 3.60803528e+01 -1.36027231e+01 3.30652580e+01
      -1.15073519e+01 2.77657738e+01 -6.39416504e+00 2.41167889e+01
      -5.43517947e-01 2.51970806e+01 5.45773697e+00 2.43528652e+01
      1.04998484e+01 2.71007710e+01 5.50337648e+00 2.85024910e+01
      -2.07568780e-01 2.90061741e+01 -7.21804380e+00 2.93041153e+01</_>
    <_>
      -6.58238449e+01 -2.85588551e+01 -6.45699844e+01 -1.30650072e+01
      -6.03185806e+01 2.60204935e+00 -5.57690582e+01 1.82549877e+01
      -4.89448128e+01 3.11215668e+01 -3.81074066e+01 3.99302559e+01
      -2.75681190e+01 4.87530670e+01 -1.31226702e+01 5.80078430e+01
      1.91382098e+00 6.00607910e+01 1.66074829e+01 5.40568008e+01
      2.63501873e+01 4.40774689e+01 3.44286728e+01 3.71573792e+01
      4.33399849e+01 2.87068825e+01 4.88529549e+01 1.77088947e+01
      5.45013008e+01 2.82028961e+00 5.63081474e+01 -1.10094023e+01
      5.77393913e+01 -2.66184921e+01 5.27004967e+01 -4.67360001e+01
      4.44032898e+01 -5.20646706e+01 3.74758034e+01 -5.32662849e+01
      2.96902447e+01 -5.35338821e+01 2.06145134e+01 -4.89642792e+01
      -1.73890724e+01 -4.97454681e+01 -2.71549358e+01 -5.44144745e+01
      -3.70293655e+01 -5.45950661e+01 -4.71513138e+01 -5.35672951e+01
      -5.70583725e+01 -4.74673805e+01 -4.48823128e+01 -2.82496910e+01
      -3.52481766e+01 -3.37406006e+01 -2.39066544e+01 -3.42210999e+01
      -1.63901730e+01 -2.61678753e+01 -2.58652248e+01 -2.39726257e+01
      -3.54919968e+01 -2.53585987e+01 1.73347015e+01 -2.75966797e+01
      2.63583431e+01 -3.33604546e+01 3.68558311e+01 -3.26103096e+01
      4.30516129e+01 -2.74913254e+01 3.60156364e+01 -2.42030315e+01
      2.70752296e+01 -2.35255375e+01 1.28180897e+00 -3.03369389e+01
      1.33103585e+00 -2.09606571e+01 1.37952006e+00 -1.16724758e+01
      1.96896923e+00 -2.13088512e+00 -1.92327824e+01 -1.53136373e+00
      -6.44560528e+00 3.90729117e+00 2.33570814e+00 6.52546358e+00
      1.05911856e+01 3.78294563e+00 2.08343334e+01 -1.43505013e+00
      -2.08193493e+01 2.45485191e+01 -1.28999529e+01 2.09240742e+01
      -6.12420130e+00 1.85444775e+01 1.65986943e+00 1.88121357e+01
      9.42016697e+00 1.84833584e+01 1.69819241e+01 2.05542526e+01
      2.28051453e+01 2.38951893e+01 1.66690559e+01 3.43221436e+01
      9.44864464e+00 4.03082390e+01 -7.69962892e-02 4.13092499e+01
      -9.14529228e+00 3.90034523e+01 -1.72961006e+01 3.00794468e+01
      -1.41900568e+01 2.57627621e+01 -6.49448156e+00 2.39416256e+01
      1.57663500e+00 2.38984013e+01 8.74055958e+00 2.35948925e+01
      1.45370340e+01 2.63395214e+01 9.30429268e+00 2.98501339e+01
      9.85522985e-01 3.10987320e+01 -8.95206451e+00 2.94272175e+01</_>
    <_>
      -6.49050293e+01 -2.70832939e+01 -6.51020966e+01 -1.17149820e+01
      -6.45078964e+01 5.20146751e+00 -6.15776176e+01 1.93462505e+01
      -5.62921448e+01 3.22769775e+01 -4.55518417e+01 4.15987434e+01
      -3.16709042e+01 4.96967964e+01 -1.70286827e+01 5.58148193e+01
      -8.40987742e-01 5.87581100e+01 1.56555052e+01 5.54127693e+01
      2.98257923e+01 5.13104477e+01 4.34825897e+01 4.44315414e+01
      5.47710800e+01 3.44526634e+01 6.28970337e+01 2.17564068e+01
      6.50451584e+01 4.79289341e+00 6.72175217e+01 -1.02002335e+01
      6.62576370e+01 -2.43692513e+01 4.86949615e+01 -4.38332558e+01
      4.23008461e+01 -5.16372719e+01 3.36096344e+01 -5.35010223e+01
      2.49658127e+01 -5.25957718e+01 1.47761927e+01 -4.85424156e+01
      -1.47188072e+01 -4.54233284e+01 -2.50050545e+01 -4.92248116e+01
      -3.56569481e+01 -5.02788467e+01 -4.30905457e+01 -4.62460709e+01
      -4.97060509e+01 -4.06521492e+01 -4.24587746e+01 -2.73594055e+01
      -3.34638824e+01 -3.21969948e+01 -2.44058971e+01 -3.19089546e+01
      -1.68609390e+01 -2.68886662e+01 -2.46999569e+01 -2.44221134e+01
      -3.28392754e+01 -2.47214546e+01 1.70130253e+01 -2.69059086e+01
      2.36042500e+01 -3.44701958e+01 3.30663643e+01 -3.38009872e+01
      4.14066277e+01 -2.79915733e+01 3.39632111e+01 -2.47575970e+01
      2.54888649e+01 -2.41473637e+01 1.11079502e+00 -2.93733578e+01
      9.53622341e-01 -2.05034199e+01 7.95262635e-01 -1.17266808e+01
      3.73936981e-01 -2.68038464e+00 -1.85163956e+01 -1.26295149e+00
      -7.82581425e+00 2.93302226e+00 4.75636393e-01 5.58716583e+00
      6.34427023e+00 3.14485073e+00 1.41774530e+01 -8.79520833e-01
      -2.41139965e+01 2.32128887e+01 -1.59045801e+01 1.83849621e+01
      -8.06065178e+00 1.63178101e+01 6.06322944e-01 1.62111988e+01
      8.87387371e+00 1.61094990e+01 1.59953747e+01 1.91776218e+01
      2.11838913e+01 2.42268734e+01 1.69067898e+01 2.94058952e+01
      1.02381020e+01 3.06729889e+01 1.99474883e+00 3.27450485e+01
      -8.27233601e+00 3.05012226e+01 -1.65688763e+01 2.82464619e+01
      -1.42705297e+01 2.34912472e+01 -8.38369846e+00 2.14481716e+01
      6.64460182e-01 2.09374065e+01 8.52787876e+00 2.04545422e+01
      1.48866835e+01 2.43043385e+01 7.81494761e+00 2.63619881e+01
      2.30322003e+00 2.64297886e+01 -5.96907949e+00 2.61454124e+01</_>
    <_>
      -6.63847427e+01 -2.62768459e+01 -6.49336929e+01 -9.87110138e+00
      -6.16022797e+01 4.97207880e+00 -5.86526070e+01 1.98223801e+01
      -5.30546188e+01 3.27139320e+01 -4.09999123e+01 4.43280792e+01
      -2.79018230e+01 4.98241386e+01 -1.25418644e+01 5.37389832e+01
      1.22003567e+00 5.38646927e+01 1.60845509e+01 5.16785393e+01
      2.93865051e+01 4.76120491e+01 4.19060402e+01 4.31666603e+01
      5.39774590e+01 3.45403976e+01 6.17640648e+01 2.13996868e+01
      6.60109100e+01 3.36031795e+00 6.72605820e+01 -1.15681400e+01
      6.73294144e+01 -2.83840847e+01 4.94299660e+01 -4.56292877e+01
      4.16596413e+01 -5.27520943e+01 3.32138901e+01 -5.45043221e+01
      2.59818649e+01 -5.32240181e+01 1.80673409e+01 -4.69549179e+01
      -1.44192591e+01 -4.71139565e+01 -2.32993412e+01 -5.23066444e+01
      -3.21197281e+01 -5.36700134e+01 -4.43332710e+01 -5.26788750e+01
      -5.10909233e+01 -4.64313049e+01 -4.23581085e+01 -2.86335564e+01
      -3.40475922e+01 -3.41462669e+01 -2.52598915e+01 -3.39163780e+01
      -1.63329124e+01 -2.68266964e+01 -2.39156551e+01 -2.32485485e+01
      -3.50150070e+01 -2.45694752e+01 1.53830271e+01 -2.70352020e+01
      2.48274326e+01 -3.25574417e+01 3.32376480e+01 -3.27139969e+01
      4.25108337e+01 -2.75401917e+01 3.30264244e+01 -2.35447559e+01
      2.38527298e+01 -2.33739834e+01 1.09396315e+00 -3.12361431e+01
      8.41016829e-01 -2.18230972e+01 5.74768007e-01 -1.25023832e+01
      3.05373341e-01 -2.73028803e+00 -1.73478489e+01 7.11298764e-01
      -1.11544809e+01 5.17865467e+00 1.43755209e-02 7.74810505e+00
      7.20269012e+00 5.98260355e+00 1.51671734e+01 2.39734936e+00
      -2.10992451e+01 2.48516350e+01 -1.57830973e+01 2.32251320e+01
      -8.55107021e+00 2.19448376e+01 -9.11474764e-01 2.14207325e+01
      6.34187222e+00 2.12857113e+01 1.36139040e+01 2.15322304e+01
      1.93828945e+01 2.37161636e+01 1.06948996e+01 2.88424454e+01
      3.81882024e+00 2.93523369e+01 -1.51154196e+00 3.02153416e+01
      -7.65253210e+00 2.91839867e+01 -1.56907148e+01 2.81879482e+01
      -1.11665068e+01 2.50486259e+01 -6.59962463e+00 2.41998310e+01
      2.83526361e-01 2.40717010e+01 6.37740469e+00 2.31945019e+01
      1.32961226e+01 2.49751396e+01 7.19066525e+00 2.58525753e+01
      3.40377957e-01 2.71257458e+01 -6.93876123e+00 2.64974861e+01</_>
    <_>
      -6.29296532e+01 -2.33179951e+01 -6.38427811e+01 -8.85102654e+00
      -6.21198387e+01 4.19947672e+00 -6.06646957e+01 1.92711411e+01
      -5.56123199e+01 3.12120628e+01 -4.35242195e+01 4.26186523e+01
      -2.99691334e+01 4.65834923e+01 -1.57303057e+01 5.12026215e+01
      8.17593932e-01 5.40777092e+01 1.78118553e+01 4.95411110e+01
      3.11301556e+01 4.54597969e+01 4.61327095e+01 4.16562042e+01
      5.69937935e+01 3.42851257e+01 6.60615540e+01 2.25931358e+01
      6.92738495e+01 6.38243055e+00 7.22081375e+01 -8.15393066e+00
      7.07728271e+01 -2.25517864e+01 5.12544441e+01 -4.68309898e+01
      4.23466797e+01 -5.26186028e+01 3.25766182e+01 -5.36699600e+01
      2.38665581e+01 -5.30764313e+01 1.72074127e+01 -5.08671799e+01
      -1.73653164e+01 -5.01869278e+01 -2.71059284e+01 -5.02374725e+01
      -3.65096283e+01 -4.99607277e+01 -4.30897598e+01 -4.54033165e+01
      -4.86985130e+01 -4.18761787e+01 -4.24575348e+01 -2.39204731e+01
      -3.48964310e+01 -2.95183525e+01 -2.48387337e+01 -3.01515427e+01
      -1.82794170e+01 -2.42948093e+01 -2.49187317e+01 -2.14117413e+01
      -3.46298981e+01 -2.04614677e+01 1.76211109e+01 -2.53513336e+01
      2.68965073e+01 -2.99880676e+01 3.66665764e+01 -2.89367104e+01
      4.51680336e+01 -2.51603394e+01 3.65148544e+01 -2.16229401e+01
      2.67963943e+01 -2.19319897e+01 -1.67134428e+00 -3.04961376e+01
      -1.43426085e+00 -2.24400730e+01 -1.55391181e+00 -1.50479002e+01
      -1.63391066e+00 -6.30810452e+00 -1.83213024e+01 -2.80204344e+00
      -8.52149010e+00 -7.39959002e-01 -1.37728894e+00 2.41187358e+00
      5.57911253e+00 -8.17731738e-01 1.62613354e+01 -3.14538145e+00
      -1.87996235e+01 2.67765274e+01 -1.35770531e+01 2.15846653e+01
      -8.69138813e+00 1.64027195e+01 -2.25075912e+00 1.82264595e+01
      2.38693643e+00 1.60766926e+01 9.56059170e+00 2.02293510e+01
      1.50794430e+01 2.51051025e+01 8.80648422e+00 2.89790764e+01
      3.82226133e+00 3.08117504e+01 -1.20162976e+00 3.12967968e+01
      -6.25525761e+00 3.07711296e+01 -1.20022507e+01 2.92641754e+01
      -1.21308546e+01 2.48942757e+01 -6.79951191e+00 2.33984890e+01
      2.26002336e-01 2.25173416e+01 5.26972246e+00 2.27061062e+01
      1.00258055e+01 2.45794201e+01 6.03248167e+00 2.57085419e+01
      -6.95783436e-01 2.55693531e+01 -7.06731081e+00 2.57568607e+01</_>
    <_>
      -6.81142044e+01 -2.42267628e+01 -6.63141632e+01 -1.05664129e+01
      -6.41235046e+01 3.83183742e+00 -5.97078018e+01 1.85518055e+01
      -5.19558563e+01 3.31941910e+01 -4.13560333e+01 4.33235130e+01
      -2.78833675e+01 5.10167198e+01 -1.39977989e+01 5.63893623e+01
      1.95082450e+00 5.71271744e+01 1.78017921e+01 5.41674156e+01
      2.98976307e+01 4.83304749e+01 4.23638039e+01 4.28584023e+01
      5.29263649e+01 3.48278809e+01 6.03938675e+01 2.16872501e+01
      6.44852524e+01 6.40759039e+00 6.70949173e+01 -8.84928799e+00
      6.74711380e+01 -2.47895031e+01 4.99546547e+01 -4.47603416e+01
      4.27569847e+01 -5.16307755e+01 3.45976448e+01 -5.21762772e+01
      2.75893726e+01 -5.09044838e+01 2.06329231e+01 -4.74046478e+01
      -1.97801342e+01 -4.86938515e+01 -2.83903370e+01 -5.25669022e+01
      -3.73480530e+01 -5.53230782e+01 -4.62194824e+01 -5.43697433e+01
      -5.20506744e+01 -5.01607895e+01 -4.41006622e+01 -2.70029087e+01
      -3.53412933e+01 -3.27739029e+01 -2.53356152e+01 -3.26331711e+01
      -1.81463585e+01 -2.61243477e+01 -2.65932159e+01 -2.29750061e+01
      -3.51000748e+01 -2.24036369e+01 1.78046646e+01 -2.54899979e+01
      2.39575577e+01 -3.19240055e+01 3.43449402e+01 -3.14303188e+01
      4.15081444e+01 -2.60413570e+01 3.49306755e+01 -2.18033676e+01
      2.60331631e+01 -2.19698811e+01 7.22067714e-01 -2.73102055e+01
      1.85236976e-01 -1.87775917e+01 1.33826432e-03 -1.06266747e+01
      -1.82253212e-01 -2.46408606e+00 -1.45463161e+01 1.19637012e+00
      -7.46912193e+00 2.88751769e+00 -7.19083965e-01 6.06853056e+00
      5.89853239e+00 4.05883408e+00 1.24990540e+01 1.31424880e+00
      -1.62457809e+01 2.34699326e+01 -1.00014544e+01 2.14689350e+01
      -5.59151649e+00 1.98840847e+01 1.45121729e+00 2.00937614e+01
      5.89561510e+00 1.99903812e+01 1.07477646e+01 2.13597736e+01
      1.41499262e+01 2.46186581e+01 1.01132793e+01 2.61948280e+01
      4.95106888e+00 2.70502071e+01 -1.70972574e+00 2.72051411e+01
      -6.55315685e+00 2.62090225e+01 -1.17669220e+01 2.48480263e+01
      -8.84143066e+00 2.36711960e+01 -4.43149233e+00 2.20863457e+01
      1.51145399e+00 2.26834126e+01 5.94744062e+00 2.22184181e+01
      1.11726103e+01 2.35674686e+01 6.74557781e+00 2.44174137e+01
      1.94498241e+00 2.52643833e+01 -2.51651001e+00 2.46328545e+01</_>
    <_>
      -7.34081650e+01 -2.84123631e+01 -6.97982483e+01 -1.27969284e+01
      -6.68082275e+01 1.64800227e+00 -6.27115059e+01 1.76041412e+01
      -5.49510651e+01 3.24868660e+01 -4.40534325e+01 4.33892365e+01
      -2.99690685e+01 5.27824249e+01 -1.53098974e+01 5.84076080e+01
      2.20648623e+00 5.83152733e+01 1.85033245e+01 5.37317390e+01
      3.15234489e+01 4.75800514e+01 4.17087975e+01 3.97955780e+01
      4.71708794e+01 3.19915981e+01 5.25331116e+01 2.12053623e+01
      5.75034027e+01 5.78183222e+00 6.18804817e+01 -8.24366760e+00
      6.33086700e+01 -2.43218365e+01 4.86064720e+01 -4.95253410e+01
      4.19822922e+01 -5.30624352e+01 3.49840508e+01 -5.39602699e+01
      2.68420887e+01 -5.16696510e+01 2.00768414e+01 -4.87554131e+01
      -1.43692341e+01 -4.52477798e+01 -2.38282337e+01 -5.04176712e+01
      -3.33972549e+01 -5.13016663e+01 -4.32779427e+01 -4.91174088e+01
      -5.20282784e+01 -4.54394264e+01 -4.40487518e+01 -2.93154316e+01
      -3.41301689e+01 -3.36262932e+01 -2.65106182e+01 -3.41180954e+01
      -1.75869408e+01 -2.71470776e+01 -2.73968735e+01 -2.45620022e+01
      -3.51495590e+01 -2.48999920e+01 1.85515804e+01 -2.83936062e+01
      2.46002769e+01 -3.28745995e+01 3.51891441e+01 -3.34639320e+01
      4.30661621e+01 -2.75881023e+01 3.65329399e+01 -2.34348888e+01
      2.66962433e+01 -2.34183292e+01 2.88485980e+00 -2.99077320e+01
      2.22000837e+00 -1.90974598e+01 2.10342765e+00 -1.00905552e+01
      1.76543903e+00 -2.33784795e+00 -1.54319744e+01 1.97800565e+00
      -7.45784044e+00 3.57018971e+00 1.56287253e+00 6.25757647e+00
      7.98743629e+00 3.83014321e+00 1.69106598e+01 3.54818273e+00
      -1.57751532e+01 2.42777348e+01 -9.43428993e+00 2.14517632e+01
      -4.79700518e+00 2.10597897e+01 5.94729125e-01 2.01079693e+01
      6.54634666e+00 1.99105892e+01 1.14050407e+01 2.07728138e+01
      1.51047745e+01 2.48128242e+01 1.05672970e+01 2.81870632e+01
      6.50280619e+00 2.93312397e+01 4.05101687e-01 2.87010899e+01
      -5.20803976e+00 2.83987103e+01 -1.14518242e+01 2.69410686e+01
      -8.02018166e+00 2.46286716e+01 -2.55537224e+00 2.40905704e+01
      2.08191347e+00 2.36985931e+01 7.13296461e+00 2.32335758e+01
      1.10887995e+01 2.38151798e+01 7.23048830e+00 2.62028961e+01
      3.49373746e+00 2.68625584e+01 -2.19016266e+00 2.61593552e+01</_>
    <_>
      -7.10080338e+01 -2.50625267e+01 -6.97508469e+01 -1.20806608e+01
      -6.72753296e+01 1.89409018e+00 -6.51939392e+01 1.55442715e+01
      -5.76008568e+01 2.82866249e+01 -4.80947113e+01 4.53324814e+01
      -3.38915520e+01 5.66865692e+01 -1.75966969e+01 6.26012077e+01
      8.96411598e-01 6.41768951e+01 1.78471012e+01 6.14131355e+01
      3.34095268e+01 5.20393753e+01 4.47529907e+01 4.15892258e+01
      5.30947838e+01 3.10443459e+01 5.75516968e+01 1.52647161e+01
      5.92592087e+01 1.99574459e+00 6.16114845e+01 -1.24578676e+01
      6.16572189e+01 -2.74362297e+01 4.78722458e+01 -4.21973991e+01
      4.21097794e+01 -4.76243973e+01 3.48779030e+01 -4.87943802e+01
      2.41913357e+01 -4.70113373e+01 1.59189997e+01 -4.35917816e+01
      -1.47789049e+01 -4.36114616e+01 -2.44855480e+01 -4.71602249e+01
      -3.23755875e+01 -4.75183411e+01 -4.20221481e+01 -4.65841560e+01
      -4.85968246e+01 -4.10846100e+01 -3.91148796e+01 -2.81511154e+01
      -3.05324974e+01 -3.23488350e+01 -2.30130329e+01 -3.19548321e+01
      -1.69764156e+01 -2.76765900e+01 -2.38852921e+01 -2.55112514e+01
      -3.17035561e+01 -2.51281853e+01 1.71644955e+01 -2.68681316e+01
      2.55561886e+01 -3.29177017e+01 3.52386627e+01 -3.34813042e+01
      4.14434814e+01 -2.73490162e+01 3.29558144e+01 -2.61530037e+01
      2.62739582e+01 -2.55059223e+01 2.64409542e+00 -3.11976147e+01
      2.28857803e+00 -2.23443165e+01 2.10450912e+00 -1.23060837e+01
      1.81924105e+00 -3.66361642e+00 -1.63149834e+01 -1.53339958e+00
      -5.65134335e+00 4.26435590e-01 1.53291917e+00 4.96760559e+00
      9.99642467e+00 -3.40786785e-01 1.59370651e+01 -9.16088581e-01
      -2.30300694e+01 2.19462070e+01 -1.65647278e+01 1.76587944e+01
      -8.24848366e+00 1.56292200e+01 7.72898316e-01 1.57304115e+01
      9.81380749e+00 1.53309546e+01 1.69555397e+01 1.73257980e+01
      2.11638603e+01 2.21551647e+01 1.60726414e+01 2.75223923e+01
      1.08614635e+01 3.17677059e+01 9.63204920e-01 3.38484726e+01
      -7.75103807e+00 3.28220406e+01 -1.60728264e+01 2.80056324e+01
      -1.69570827e+01 2.28543415e+01 -7.86054373e+00 2.01030998e+01
      6.38367057e-01 1.89059811e+01 1.08595877e+01 2.01605282e+01
      1.52590771e+01 2.31010609e+01 9.17440128e+00 2.59347153e+01
      1.76260197e+00 2.66524849e+01 -7.95573282e+00 2.68454914e+01</_>
    <_>
      -7.10064468e+01 -2.55083103e+01 -6.89743500e+01 -9.74284077e+00
      -6.66734619e+01 3.21130967e+00 -6.38438263e+01 1.79810581e+01
      -5.64205666e+01 3.28387985e+01 -4.51556053e+01 4.45337181e+01
      -3.12810459e+01 5.11645470e+01 -1.75964241e+01 5.60121384e+01
      -2.98122144e+00 5.84721031e+01 1.46943007e+01 5.63730736e+01
      2.82464161e+01 5.01372261e+01 4.34521408e+01 4.27472229e+01
      5.40274391e+01 3.20775528e+01 6.07247963e+01 1.75070400e+01
      6.32854347e+01 1.83873570e+00 6.49072189e+01 -1.14519520e+01
      6.69102249e+01 -2.50573711e+01 4.94102974e+01 -4.54805107e+01
      4.17203979e+01 -5.01061707e+01 3.19369698e+01 -5.13926544e+01
      2.51023197e+01 -5.02717628e+01 1.61600533e+01 -4.54711380e+01
      -1.49257202e+01 -4.59664040e+01 -2.44403839e+01 -5.00641899e+01
      -3.36193733e+01 -5.02301521e+01 -4.22363548e+01 -4.89285088e+01
      -4.84097061e+01 -4.35120010e+01 -4.09423599e+01 -2.75688438e+01
      -3.27530441e+01 -3.16467228e+01 -2.30698509e+01 -3.17282753e+01
      -1.51051464e+01 -2.72704067e+01 -2.31659889e+01 -2.26997070e+01
      -3.29061317e+01 -2.43424377e+01 1.79242954e+01 -2.69035168e+01
      2.52855625e+01 -3.36295853e+01 3.37011757e+01 -3.28250351e+01
      4.18730087e+01 -2.95671787e+01 3.38740463e+01 -2.36136532e+01
      2.50439091e+01 -2.37555065e+01 1.36181986e+00 -3.13239346e+01
      6.24680221e-01 -2.36134338e+01 4.57839757e-01 -1.44252815e+01
      3.50120038e-01 -5.95229197e+00 -1.56740732e+01 -1.11714733e+00
      -7.25845242e+00 -3.12596649e-01 1.49998829e-01 3.58382988e+00
      7.88109732e+00 4.32459861e-01 1.69125957e+01 -1.53187311e+00
      -1.90274696e+01 2.65164738e+01 -1.30445547e+01 2.31887226e+01
      -6.43397284e+00 2.06417942e+01 6.38816953e-01 2.06064014e+01
      6.63353920e+00 2.08283443e+01 1.48819475e+01 2.33819542e+01
      1.92409401e+01 2.59241314e+01 1.29442120e+01 2.88614788e+01
      7.65459728e+00 2.87069321e+01 8.54091048e-01 2.94706707e+01
      -5.42205191e+00 2.85195065e+01 -1.31325531e+01 2.77823677e+01
      -8.59402275e+00 2.46769333e+01 -4.91953564e+00 2.32631760e+01
      8.27878892e-01 2.23987598e+01 6.78930521e+00 2.29686832e+01
      1.18784370e+01 2.52202606e+01 5.17861032e+00 2.49308929e+01
      9.07971740e-01 2.52341766e+01 -5.43473387e+00 2.49789658e+01</_>
    <_>
      -6.22406158e+01 -2.42229080e+01 -6.25032806e+01 -1.01107035e+01
      -6.02529182e+01 4.02934837e+00 -5.79394760e+01 1.87858810e+01
      -5.29437714e+01 3.51138802e+01 -4.46558380e+01 4.73151779e+01
      -3.45075836e+01 5.39756889e+01 -2.05793800e+01 6.08345833e+01
      -4.21646357e+00 6.42811432e+01 1.24648790e+01 6.23709984e+01
      2.89481640e+01 5.32846718e+01 4.36476555e+01 4.50263023e+01
      5.54251404e+01 3.30371895e+01 6.24045181e+01 1.47142372e+01
      6.39332390e+01 7.65162706e-01 6.63260727e+01 -1.39065714e+01
      6.58308182e+01 -2.63689766e+01 4.79471970e+01 -4.59177589e+01
      4.06791496e+01 -5.19687729e+01 3.18540058e+01 -5.25212402e+01
      2.42031727e+01 -5.10214539e+01 1.77979889e+01 -4.68463745e+01
      -1.50339193e+01 -4.65284996e+01 -2.48636951e+01 -5.04075584e+01
      -3.43401299e+01 -5.12010498e+01 -4.37108536e+01 -4.82494087e+01
      -5.01803932e+01 -4.18802452e+01 -3.99606972e+01 -2.64585171e+01
      -3.39309692e+01 -3.12218246e+01 -2.53529816e+01 -3.28277626e+01
      -1.75754738e+01 -2.77744083e+01 -2.37113724e+01 -2.39382668e+01
      -3.33226776e+01 -2.31533012e+01 1.98212624e+01 -2.64207726e+01
      2.66728306e+01 -3.22099648e+01 3.54274788e+01 -3.22731323e+01
      4.19306488e+01 -2.73894577e+01 3.56529083e+01 -2.47919884e+01
      2.78967609e+01 -2.42119465e+01 2.18622065e+00 -2.96239796e+01
      1.68006277e+00 -2.12474899e+01 1.17856061e+00 -1.29617176e+01
      6.49595261e-01 -4.25950146e+00 -1.39175348e+01 -1.27641773e+00
      -6.46464205e+00 -1.81422579e+00 3.50889713e-01 3.04119825e+00
      7.06675720e+00 -1.17696249e+00 1.51983366e+01 -1.16878307e+00
      -1.79452705e+01 2.64172535e+01 -1.31542053e+01 2.17957821e+01
      -6.82650375e+00 1.41879482e+01 -9.23807442e-01 1.38276606e+01
      5.05680752e+00 1.40821428e+01 9.40156364e+00 1.92129707e+01
      1.48087378e+01 2.54845905e+01 1.23101072e+01 2.82730122e+01
      6.82511330e+00 2.95248013e+01 3.70715767e-01 3.05794754e+01
